{"learner":{"attributes":{"scikit_learn":"{\"_estimator_type\": \"regressor\"}"},"feature_names":["tmean","trange","tmax","tmin","rh","sh","wind","Latitude","Longitude"],"feature_types":["float","float","float","float","float","float","float","float","float"],"gradient_booster":{"model":{"gbtree_model_param":{"num_parallel_tree":"1","num_trees":"100"},"iteration_indptr":[0,1,2,3,4,5,6,7,8,9,10,11,12,13,14,15,16,17,18,19,20,21,22,23,24,25,26,27,28,29,30,31,32,33,34,35,36,37,38,39,40,41,42,43,44,45,46,47,48,49,50,51,52,53,54,55,56,57,58,59,60,61,62,63,64,65,66,67,68,69,70,71,72,73,74,75,76,77,78,79,80,81,82,83,84,85,86,87,88,89,90,91,92,93,94,95,96,97,98,99,100],"tree_info":[0,0,0,0,0,0,0,0,0,0,0,0,0,0,0,0,0,0,0,0,0,0,0,0,0,0,0,0,0,0,0,0,0,0,0,0,0,0,0,0,0,0,0,0,0,0,0,0,0,0,0,0,0,0,0,0,0,0,0,0,0,0,0,0,0,0,0,0,0,0,0,0,0,0,0,0,0,0,0,0,0,0,0,0,0,0,0,0,0,0,0,0,0,0,0,0,0,0,0,0],"trees":[{"base_weights":[-1.2773371E-7,3.5189564E0,-2.0392718E0,2.9175532E0,9.053323E0,-2.5655897E0,-1.6652904E-1,2.2357116E0,4.4579334E0,7.505208E0,1.2176569E1,-2.6426947E0,-1.9867235E0,-5.622263E-1,6.783886E-1,1.4287014E-1,2.4877536E0,4.8829327E0,3.4062576E0,7.4541116E0,9.649818E0,3.5657455E1,1.1930472E1,-2.6616325E0,-2.4670422E0,-2.357052E0,-1.7958937E0,-1.4508918E-1,-1.0316136E0,8.111227E-1,-4.972274E-1,-1.1468526E0,1.2397956E0,3.801802E0,2.1473508E0,4.768668E0,7.953159E0,3.3795075E0,7.338045E0,8.502052E0,6.7487073E0,3.1108856E1,9.521339E0,1.0568741E1,1.451903E1,-2.140968E0,-2.6629388E0,-2.5805173E0,-2.324418E0,-2.4742002E0,-2.0163832E0,-1.9098647E0,-1.3099562E0,-4.6184778E-1,2.0605643E-1,-8.0478317E-1,-1.4288642E0,6.213874E-1,2.122554E0,-2.1670939E-1,-1.2845823E0,-5.3558767E-1,-2.360637E-1,6.298601E-1,1.0811622E-1,9.8323137E-1,1.5402205E0,6.3271034E-1,2.043225E0,1.3106458E0,1.6144772E0,2.283642E0,7.569506E0,9.098724E-1,1.5085391E0,5.748783E0,2.4410505E0,1.9392017E0,3.2300847E0,7.080912E0,1.9341347E0,7.3453374E0,3.076873E0,4.076972E0,9.390646E0,-7.0738006E-1,3.429427E-1,-8.0180824E-1,-7.8700215E-1,-7.581622E-1,-7.874255E-1,-6.580016E-1,-7.323127E-1,-7.6596427E-1,-7.1236926E-1,-7.087696E-1,-4.804229E-1,-5.347609E-1,-6.362875E-1,1.0047728E0,-4.0104723E-1,-3.3487433E-1,-1.0224562E-1,-1.0994645E-1,1.757258E-1,-5.228119E-1,-2.0134202E-1,-5.953379E-1,-3.95806E-1,1.1776468E-1,4.3786582E-1,3.4959224E-1,1.003184E0,-1.4929658E-1,1.0592564E0,-2.6805818E-1,-5.6894773E-1],"categories":[],"categories_nodes":[],"categories_segments":[],"categories_sizes":[],"default_left":[0,0,0,0,0,0,0,0,0,0,0,0,0,0,0,0,0,0,0,0,0,0,0,0,0,0,0,0,0,0,0,0,0,0,0,0,0,0,0,0,0,0,0,0,0,0,0,0,0,0,0,0,0,0,0,0,0,0,0,0,0,0,0,0,0,0,0,0,0,0,0,0,0,0,0,0,0,0,0,0,0,0,0,0,0,0,0,0,0,0,0,0,0,0,0,0,0,0,0,0,0,0,0,0,0,0,0,0,0,0,0,0,0,0,0,0,0],"id":0,"left_children":[1,3,5,7,9,11,13,15,17,19,21,23,25,27,29,31,33,35,37,39,-1,41,43,45,47,49,51,53,55,57,59,61,63,65,67,69,71,73,-1,75,77,-1,79,81,83,85,87,89,91,93,95,97,99,101,103,105,107,109,111,113,115,-1,-1,-1,-1,-1,-1,-1,-1,-1,-1,-1,-1,-1,-1,-1,-1,-1,-1,-1,-1,-1,-1,-1,-1,-1,-1,-1,-1,-1,-1,-1,-1,-1,-1,-1,-1,-1,-1,-1,-1,-1,-1,-1,-1,-1,-1,-1,-1,-1,-1,-1,-1,-1,-1,-1,-1],"loss_changes":[2.3524E6,4.0028188E5,2.0456206E5,1.1393019E5,5.690525E4,7.22575E3,1.5223168E4,3.9666438E4,1.48605E4,9.69475E3,2.214E4,4.69E2,1.3418125E3,6.071573E3,2.2666353E3,1.1438096E4,3.0013625E4,8.2775E3,5.3144453E3,5.7595625E3,0E0,7.014339E4,1.3473875E4,8.2E1,2.1940625E2,2.5338281E2,6.938789E2,1.8264653E3,1.313624E3,3.2458438E3,3.2527994E2,8.526113E2,3.3024722E3,9.629344E3,9.511359E3,5.5776875E3,4.810492E3,5.4554062E3,0E0,1.2155094E4,5.3163594E3,0E0,1.1465376E3,1.0781406E4,2.0314062E4,2.3640796E2,4.275E1,1.16328125E1,8.913672E1,3.1828125E1,2.3497363E2,2.6991797E2,3.0391553E2,6.8336536E2,1.6932715E3,1.1633042E3,3.1997656E2,2.1863818E3,1.9240713E3,1.1472717E3,9.091083E1,0E0,0E0,0E0,0E0,0E0,0E0,0E0,0E0,0E0,0E0,0E0,0E0,0E0,0E0,0E0,0E0,0E0,0E0,0E0,0E0,0E0,0E0,0E0,0E0,0E0,0E0,0E0,0E0,0E0,0E0,0E0,0E0,0E0,0E0,0E0,0E0,0E0,0E0,0E0,0E0,0E0,0E0,0E0,0E0,0E0,0E0,0E0,0E0,0E0,0E0,0E0,0E0,0E0,0E0,0E0,0E0],"parents":[2147483647,0,0,1,1,2,2,3,3,4,4,5,5,6,6,7,7,8,8,9,9,10,10,11,11,12,12,13,13,14,14,15,15,16,16,17,17,18,18,19,19,21,21,22,22,23,23,24,24,25,25,26,26,27,27,28,28,29,29,30,30,31,31,32,32,33,33,34,34,35,35,36,36,37,37,39,39,40,40,42,42,43,43,44,44,45,45,46,46,47,47,48,48,49,49,50,50,51,51,52,52,53,53,54,54,55,55,56,56,57,57,58,58,59,59,60,60],"right_children":[2,4,6,8,10,12,14,16,18,20,22,24,26,28,30,32,34,36,38,40,-1,42,44,46,48,50,52,54,56,58,60,62,64,66,68,70,72,74,-1,76,78,-1,80,82,84,86,88,90,92,94,96,98,100,102,104,106,108,110,112,114,116,-1,-1,-1,-1,-1,-1,-1,-1,-1,-1,-1,-1,-1,-1,-1,-1,-1,-1,-1,-1,-1,-1,-1,-1,-1,-1,-1,-1,-1,-1,-1,-1,-1,-1,-1,-1,-1,-1,-1,-1,-1,-1,-1,-1,-1,-1,-1,-1,-1,-1,-1,-1,-1,-1,-1,-1],"split_conditions":[9.23E0,8.869E1,1.495E1,8.425E1,9.062E1,1.263E1,1.685E1,1.624E1,7.09E0,2.365E1,1.62E0,1.019E1,2.314E1,1.107E1,1.144E1,6.688E1,6.76E0,2.336E1,2.339E1,2.163E1,9.649818E0,2.303E1,9.194E1,1.073E1,2.409E1,1.447E1,1.459E1,9.8122E0,1.25E1,2.489E1,3.729E1,5.231E1,2.967E1,2.398E1,1.88E1,8.706E1,2.479E1,8.675E1,7.338045E0,1.6E0,2.308E1,3.1108856E1,2.315E1,2.012E1,1.843E1,3.831E1,6.16E0,5.175E1,3.37E0,1.367E1,9.8122E0,1.311E1,4.288E1,1.562E1,1.599E1,2.151E1,2.05E0,9.8122E0,1.746E1,4.66E0,1.727E1,-5.3558767E-1,-2.360637E-1,6.298601E-1,1.0811622E-1,9.8323137E-1,1.5402205E0,6.3271034E-1,2.043225E0,1.3106458E0,1.6144772E0,2.283642E0,7.569506E0,9.098724E-1,1.5085391E0,5.748783E0,2.4410505E0,1.9392017E0,3.2300847E0,7.080912E0,1.9341347E0,7.3453374E0,3.076873E0,4.076972E0,9.390646E0,-7.0738006E-1,3.429427E-1,-8.0180824E-1,-7.8700215E-1,-7.581622E-1,-7.874255E-1,-6.580016E-1,-7.323127E-1,-7.6596427E-1,-7.1236926E-1,-7.087696E-1,-4.804229E-1,-5.347609E-1,-6.362875E-1,1.0047728E0,-4.0104723E-1,-3.3487433E-1,-1.0224562E-1,-1.0994645E-1,1.757258E-1,-5.228119E-1,-2.0134202E-1,-5.953379E-1,-3.95806E-1,1.1776468E-1,4.3786582E-1,3.4959224E-1,1.003184E0,-1.4929658E-1,1.0592564E0,-2.6805818E-1,-5.6894773E-1],"split_indices":[1,4,5,4,4,5,5,5,1,3,6,5,3,1,1,4,1,3,3,3,0,0,4,1,3,5,5,7,1,3,2,4,2,3,5,4,3,4,0,6,3,0,0,3,5,2,5,4,6,5,7,1,4,5,5,3,6,7,5,6,5,0,0,0,0,0,0,0,0,0,0,0,0,0,0,0,0,0,0,0,0,0,0,0,0,0,0,0,0,0,0,0,0,0,0,0,0,0,0,0,0,0,0,0,0,0,0,0,0,0,0,0,0,0,0,0,0],"split_type":[0,0,0,0,0,0,0,0,0,0,0,0,0,0,0,0,0,0,0,0,0,0,0,0,0,0,0,0,0,0,0,0,0,0,0,0,0,0,0,0,0,0,0,0,0,0,0,0,0,0,0,0,0,0,0,0,0,0,0,0,0,0,0,0,0,0,0,0,0,0,0,0,0,0,0,0,0,0,0,0,0,0,0,0,0,0,0,0,0,0,0,0,0,0,0,0,0,0,0,0,0,0,0,0,0,0,0,0,0,0,0,0,0,0,0,0,0],"sum_hessian":[3.27808E5,1.2027E5,2.07538E5,1.08483E5,1.1787E4,1.62007E5,4.5531E4,7.5199E4,3.3284E4,7.883E3,3.904E3,1.42961E5,1.9046E4,3.1009E4,1.4522E4,8.083E3,6.7116E4,2.3702E4,9.582E3,7.868E3,1.5E1,3.9E1,3.865E3,1.29035E5,1.3926E4,6.473E3,1.2573E4,1.6419E4,1.459E4,1.3049E4,1.473E3,3.715E3,4.368E3,1.3807E4,5.3309E4,2.2854E4,8.48E2,9.571E3,1.1E1,3.161E3,4.707E3,1E1,2.9E1,2.536E3,1.329E3,3.27E2,1.28708E5,7.746E3,6.18E3,4.812E3,1.661E3,1.0182E4,2.391E3,8.632E3,7.787E3,9.289E3,5.301E3,1.1401E4,1.648E3,1.087E3,3.86E2,1.338E3,2.377E3,2.208E3,2.16E3,9.91E3,3.897E3,5.2876E4,4.33E2,1.3836E4,9.018E3,8.33E2,1.5E1,7.911E3,1.66E3,1.03E2,3.058E3,4.398E3,3.09E2,4E0,2.5E1,5.4E1,2.482E3,1.261E3,6.8E1,3.07E2,2E1,1.03214E5,2.5494E4,3.539E3,4.207E3,2.919E3,3.261E3,2.67E3,2.142E3,9.03E2,7.58E2,6.357E3,3.825E3,1.3E1,2.378E3,1.346E3,7.286E3,3.105E3,4.682E3,1.157E3,8.132E3,8.7E2,4.431E3,8.957E3,2.444E3,9.25E2,7.23E2,1.012E3,7.5E1,2.37E2,1.49E2],"tree_param":{"num_deleted":"0","num_feature":"9","num_nodes":"117","size_leaf_vector":"1"}},{"base_weights":[3.2475803E-4,2.5806036E0,-1.3703746E0,2.2292929E0,7.271693E0,-1.7681197E0,6.323759E-2,1.6219896E0,3.2013204E0,6.6203094E0,1.0435478E1,-1.8478445E0,-1.2733237E0,4.4362783E-1,-3.3074495E-1,3.2934713E-1,1.8357779E0,2.7573757E0,3.9488182E0,5.8859396E0,9.473088E0,2.1516235E1,9.207846E0,-1.861518E0,-1.6866149E0,-1.4521437E0,-9.8460495E-1,3.0089527E-1,1.3308902E0,-5.786407E-1,5.2448764E-2,-1.6209514E-1,1.5147462E0,2.3267758E0,1.3469938E0,3.8569288E0,2.4844222E0,3.9045064E0,1.3724049E1,4.6120014E0,6.7576942E0,8.833112E0,2.0337112E1,1.3819483E1,7.034978E1,8.366077E0,2.8305445E1,-1.8069575E0,-1.8689768E0,-1.7973511E0,-1.5779306E0,-1.7034663E0,-1.3165653E0,-7.630722E-1,-1.3031262E0,8.926316E-1,2.074939E-1,1.291684E0,1.3110125E1,-8.5228765E-1,-1.7562781E-1,3.0679804E-1,-1.0782644E0,-2.906128E-1,5.2182537E-2,3.612955E-1,1.5385077E0,1.6547335E0,6.7083E-1,3.7489915E-1,9.56224E-1,1.1217935E0,4.299485E0,7.3789424E-1,4.256148E0,4.2295942E-1,1.1943797E0,9.461057E0,2.150423E0,1.5671341E0,5.3792953E-1,4.48492E0,1.9557672E0,3.353868E0,1.7501992E0,6.468528E0,2.2615683E0,8.576229E0,9.395452E-1,2.6452877E1,8.922042E0,2.1812975E0,3.0918863E0,1.2072032E1,5.119448E0,-5.5890995E-1,-5.28431E-1,-5.622727E-1,-5.5424416E-1,-5.400498E-1,-1.8951543E-1,-4.7739413E-1,5.3976667E-1,-1.6837358E-1,-5.1423883E-1,-4.3251115E-1,-3.3017516E-1,-3.1241816E-1,-1.2768024E-1,-5.804295E-1,-3.6743003E-1,1.4550611E0,2.2703892E-1,-2.0667415E-3,1.268783E-1,1.7308816E-1,6.557391E-1,-3.5925552E-1,-2.056588E-1,-1.053179E-1,7.767907E-2,1.5347724E-1,-1.6270743E-1,-4.574308E-1,-9.239863E-2],"categories":[],"categories_nodes":[],"categories_segments":[],"categories_sizes":[],"default_left":[0,0,0,0,0,0,0,0,0,0,0,0,0,0,0,0,0,0,0,0,0,0,0,0,0,0,0,0,0,0,0,0,0,0,0,0,0,0,0,0,0,0,0,0,0,0,0,0,0,0,0,0,0,0,0,0,0,0,0,0,0,0,0,0,0,0,0,0,0,0,0,0,0,0,0,0,0,0,0,0,0,0,0,0,0,0,0,0,0,0,0,0,0,0,0,0,0,0,0,0,0,0,0,0,0,0,0,0,0,0,0,0,0,0,0,0,0,0,0,0,0,0,0,0,0],"id":1,"left_children":[1,3,5,7,9,11,13,15,17,19,21,23,25,27,29,31,33,35,37,39,41,43,45,47,49,51,53,55,57,59,61,63,65,67,69,71,73,75,77,79,81,83,85,87,89,91,93,95,97,99,101,103,105,107,109,111,113,115,-1,117,119,121,123,-1,-1,-1,-1,-1,-1,-1,-1,-1,-1,-1,-1,-1,-1,-1,-1,-1,-1,-1,-1,-1,-1,-1,-1,-1,-1,-1,-1,-1,-1,-1,-1,-1,-1,-1,-1,-1,-1,-1,-1,-1,-1,-1,-1,-1,-1,-1,-1,-1,-1,-1,-1,-1,-1,-1,-1,-1,-1,-1,-1,-1,-1],"loss_changes":[1.1593941E6,1.8740769E5,1.2207341E5,6.2452562E4,1.6258969E4,6.6085625E3,6.9685176E3,1.7995703E4,1.349E4,1.3714656E4,1.8179672E4,3.1503125E2,1.1993984E3,2.9955508E3,2.1697449E3,5.384803E3,1.3407359E4,7.6520625E3,6.5117812E3,5.777078E3,9.16482E3,4.9393004E4,1.9343469E4,5.075E1,1.3308984E2,4.870918E2,6.269453E2,1.1261967E3,5.3887935E3,1.5293687E3,2.5809302E3,1.771494E3,3.032688E3,8.0481406E3,5.012496E3,6.198836E3,5.8953906E3,2.8839062E3,7.715001E3,3.6604688E3,5.9644062E3,8.879141E3,9.9731055E2,1.8377145E4,1.0408305E4,2.4067031E3,6.1551094E3,3.763672E1,9.78125E0,1.719336E1,2.6084863E2,6.0289062E1,2.5066309E2,4.9276025E2,1.782373E2,1.48972E3,8.1300354E2,2.092246E3,0E0,4.74708E2,4.27771E2,1.2742764E3,5.663251E2,0E0,0E0,0E0,0E0,0E0,0E0,0E0,0E0,0E0,0E0,0E0,0E0,0E0,0E0,0E0,0E0,0E0,0E0,0E0,0E0,0E0,0E0,0E0,0E0,0E0,0E0,0E0,0E0,0E0,0E0,0E0,0E0,0E0,0E0,0E0,0E0,0E0,0E0,0E0,0E0,0E0,0E0,0E0,0E0,0E0,0E0,0E0,0E0,0E0,0E0,0E0,0E0,0E0,0E0,0E0,0E0,0E0,0E0,0E0,0E0,0E0,0E0],"parents":[2147483647,0,0,1,1,2,2,3,3,4,4,5,5,6,6,7,7,8,8,9,9,10,10,11,11,12,12,13,13,14,14,15,15,16,16,17,17,18,18,19,19,20,20,21,21,22,22,23,23,24,24,25,25,26,26,27,27,28,28,29,29,30,30,31,31,32,32,33,33,34,34,35,35,36,36,37,37,38,38,39,39,40,40,41,41,42,42,43,43,44,44,45,45,46,46,47,47,48,48,49,49,50,50,51,51,52,52,53,53,54,54,55,55,56,56,57,57,59,59,60,60,61,61,62,62],"right_children":[2,4,6,8,10,12,14,16,18,20,22,24,26,28,30,32,34,36,38,40,42,44,46,48,50,52,54,56,58,60,62,64,66,68,70,72,74,76,78,80,82,84,86,88,90,92,94,96,98,100,102,104,106,108,110,112,114,116,-1,118,120,122,124,-1,-1,-1,-1,-1,-1,-1,-1,-1,-1,-1,-1,-1,-1,-1,-1,-1,-1,-1,-1,-1,-1,-1,-1,-1,-1,-1,-1,-1,-1,-1,-1,-1,-1,-1,-1,-1,-1,-1,-1,-1,-1,-1,-1,-1,-1,-1,-1,-1,-1,-1,-1,-1,-1,-1,-1,-1,-1,-1,-1,-1,-1],"split_conditions":[8.95E0,8.95E1,1.538E1,8.381E1,9.194E1,1.282E1,1.025E1,7.188E1,8.694E1,3.28E0,2.13E0,1.093E1,1.459E1,1.764E1,1.654E1,1.703E1,7.63E0,5.94E0,2.358E1,9.019E1,2.314E1,2.12E0,1.843E1,1.515E1,2.394E1,2.336E1,1.23E1,3.051E1,3.633E1,9.8122E0,7.406E1,1.544E1,2.68E1,5.02E0,1.825E1,4.27E0,2.398E1,2.303E1,8.725E1,1.801E1,1.72E0,2.165E1,9.062E1,3.89E0,2.347E1,1.746E1,2.449E1,5.92E0,2.279E1,6.881E1,4.994E1,3.005E1,9.8122E0,2.443E1,2.794E1,1.3E0,1.678E1,2.787E1,1.3110125E1,1.581E1,1.617E1,1.201E1,9.8122E0,-2.906128E-1,5.2182537E-2,3.612955E-1,1.5385077E0,1.6547335E0,6.7083E-1,3.7489915E-1,9.56224E-1,1.1217935E0,4.299485E0,7.3789424E-1,4.256148E0,4.2295942E-1,1.1943797E0,9.461057E0,2.150423E0,1.5671341E0,5.3792953E-1,4.48492E0,1.9557672E0,3.353868E0,1.7501992E0,6.468528E0,2.2615683E0,8.576229E0,9.395452E-1,2.6452877E1,8.922042E0,2.1812975E0,3.0918863E0,1.2072032E1,5.119448E0,-5.5890995E-1,-5.28431E-1,-5.622727E-1,-5.5424416E-1,-5.400498E-1,-1.8951543E-1,-4.7739413E-1,5.3976667E-1,-1.6837358E-1,-5.1423883E-1,-4.3251115E-1,-3.3017516E-1,-3.1241816E-1,-1.2768024E-1,-5.804295E-1,-3.6743003E-1,1.4550611E0,2.2703892E-1,-2.0667415E-3,1.268783E-1,1.7308816E-1,6.557391E-1,-3.5925552E-1,-2.056588E-1,-1.053179E-1,7.767907E-2,1.5347724E-1,-1.6270743E-1,-4.574308E-1,-9.239863E-2],"split_indices":[1,4,5,4,4,5,1,4,4,6,6,5,5,5,5,5,1,1,3,4,3,6,5,1,3,3,1,2,2,7,4,5,3,1,5,6,3,0,4,5,6,3,4,1,0,5,0,5,3,4,4,2,7,3,0,6,5,0,0,5,5,1,7,0,0,0,0,0,0,0,0,0,0,0,0,0,0,0,0,0,0,0,0,0,0,0,0,0,0,0,0,0,0,0,0,0,0,0,0,0,0,0,0,0,0,0,0,0,0,0,0,0,0,0,0,0,0,0,0,0,0,0,0,0,0],"split_type":[0,0,0,0,0,0,0,0,0,0,0,0,0,0,0,0,0,0,0,0,0,0,0,0,0,0,0,0,0,0,0,0,0,0,0,0,0,0,0,0,0,0,0,0,0,0,0,0,0,0,0,0,0,0,0,0,0,0,0,0,0,0,0,0,0,0,0,0,0,0,0,0,0,0,0,0,0,0,0,0,0,0,0,0,0,0,0,0,0,0,0,0,0,0,0,0,0,0,0,0,0,0,0,0,0,0,0,0,0,0,0,0,0,0,0,0,0,0,0,0,0,0,0,0,0],"sum_hessian":[3.27808E5,1.13725E5,2.14083E5,1.05803E5,7.922E3,1.67587E5,4.6496E4,6.512E4,4.0683E4,6.572E3,1.35E3,1.44329E5,2.3258E4,2.3656E4,2.284E4,9.242E3,5.5878E4,2.5527E4,1.5156E4,5.229E3,1.343E3,1.33E2,1.217E3,1.33036E5,1.1293E4,1.436E4,8.898E3,2.0379E4,3.277E3,1.3868E4,8.972E3,6.534E3,2.708E3,2.7874E4,2.8004E4,5.074E3,2.0453E4,1.5089E4,6.7E1,2.127E3,3.102E3,1.27E3,7.3E1,1.16E2,1.7E1,1.167E3,5E1,1.6029E4,1.17007E5,5.586E3,5.707E3,5.028E3,9.332E3,5.25E3,3.648E3,2.777E3,1.7602E4,3.275E3,2E0,8.259E3,5.609E3,7.325E3,1.647E3,1.921E3,4.613E3,2.495E3,2.13E2,7.69E2,2.7105E4,2.6599E4,1.405E3,5.019E3,5.5E1,2.0411E4,4.2E1,4.51E2,1.4638E4,1.7E1,5E1,1.747E3,3.8E2,8.6E1,3.016E3,7.11E2,5.59E2,6.6E1,7E0,4.8E1,6.8E1,1.1E1,6E0,7.49E2,4.18E2,2.3E1,2.7E1,7.164E3,8.865E3,9.3916E4,2.3091E4,5.572E3,1.4E1,5.685E3,2.2E1,4.7E1,4.981E3,5.905E3,3.427E3,2.876E3,2.374E3,4E2,3.248E3,9.1E1,2.686E3,8.823E3,8.779E3,1.821E3,1.454E3,2.688E3,5.571E3,3.996E3,1.613E3,5.902E3,1.423E3,1.042E3,6.05E2],"tree_param":{"num_deleted":"0","num_feature":"9","num_nodes":"125","size_leaf_vector":"1"}},{"base_weights":[6.1652256E-4,1.8409549E0,-9.4178504E-1,1.4688379E0,4.1243715E0,-1.2496778E0,2.8358424E-2,1.836893E0,8.789925E-1,3.5991156E0,6.682272E0,-1.2971625E0,-9.533147E-1,-1.608661E-1,5.3429943E-1,3.199186E0,1.6965468E0,-3.218942E-1,1.0149001E0,3.2970235E0,4.934044E0,2.3247345E1,6.4515815E0,-1.2150792E0,-1.3052647E0,-1.1415988E0,-8.462055E-1,1.7635259E-1,-3.413933E-1,4.8258916E-1,2.51772E0,2.0749838E0,4.400152E0,3.173839E-1,1.8080628E0,-9.251101E-1,-9.756584E-2,1.4045576E0,8.4635735E-1,6.4069486E0,3.1707027E0,4.176846E0,1.1994038E1,2.0955137E1,2.6365137E0,7.4143906E0,4.7740164E0,-1.2644675E0,-1.1262647E0,-1.3096306E0,-1.2807238E0,-1.2725025E0,-9.760204E-1,-6.7427516E-1,-1.0004852E0,4.8040968E-1,-3.715031E-2,-5.0130886E-1,-8.196637E-2,4.1727918E-1,1.7095404E0,4.0225997E0,-4.633366E-1,4.0693003E-1,9.829446E-1,1.0697095E0,2.9013999E0,-1.4732786E-1,3.111598E-1,4.6940783E-1,6.409227E-1,-1.8510537E-1,-3.8696527E-1,-5.2804504E-2,4.5234337E0,4.1163954E-1,1.1118312E1,2.1512897E-1,5.666774E-1,1.1926321E0,9.953893E0,8.4551316E-1,1.2035754E0,2.6144595E0,1.1547992E0,4.5644436E0,6.541366E-1,5.156002E0,-2.3705466E-1,2.0831394E0,7.4815335E0,1.1717327E0,2.3866334E0,-5.069309E-1,-3.7827295E-1,-3.595794E-1,-2.724646E-1,-3.848211E-1,-3.931688E-1,-3.910587E-1,-3.6977583E-1,-3.9076793E-1,-3.2293725E-1,-3.3837014E-1,-1.6166174E-1,-1.2651168E-1,-3.085139E-1,-2.4369512E-1,-3.189724E-1,6.239935E-1,1.0765348E-1,-1.9221422E-1,3.853817E-2,-3.0923647E-1,-1.2200042E-1,-2.9605067E-1,-2.1494904E-3,8.7889075E-2,3.0260926E-1,3.5476252E-1,1.6227505E0,1.5852786E0,7.011567E-2,4.7505704E-1,-4.0157244E-1],"categories":[],"categories_nodes":[],"categories_segments":[],"categories_sizes":[],"default_left":[0,0,0,0,0,0,0,0,0,0,0,0,0,0,0,0,0,0,0,0,0,0,0,0,0,0,0,0,0,0,0,0,0,0,0,0,0,0,0,0,0,0,0,0,0,0,0,0,0,0,0,0,0,0,0,0,0,0,0,0,0,0,0,0,0,0,0,0,0,0,0,0,0,0,0,0,0,0,0,0,0,0,0,0,0,0,0,0,0,0,0,0,0,0,0,0,0,0,0,0,0,0,0,0,0,0,0,0,0,0,0,0,0,0,0,0,0,0,0,0,0,0,0,0,0],"id":2,"left_children":[1,3,5,7,9,11,13,15,17,19,21,23,25,27,29,31,33,35,37,39,41,43,45,47,49,51,53,55,57,59,61,63,65,67,69,71,73,75,77,79,81,83,85,-1,87,89,91,93,95,97,99,101,103,105,107,109,111,113,115,117,119,121,123,-1,-1,-1,-1,-1,-1,-1,-1,-1,-1,-1,-1,-1,-1,-1,-1,-1,-1,-1,-1,-1,-1,-1,-1,-1,-1,-1,-1,-1,-1,-1,-1,-1,-1,-1,-1,-1,-1,-1,-1,-1,-1,-1,-1,-1,-1,-1,-1,-1,-1,-1,-1,-1,-1,-1,-1,-1,-1,-1,-1,-1,-1],"loss_changes":[5.6853325E5,9.432403E4,6.475642E4,2.0722547E4,2.087625E4,2.3146719E3,5.0003047E3,1.12330625E4,5.9870215E3,5.1891562E3,9.972914E3,9.2734375E1,4.574297E2,2.314183E3,1.4569258E3,7.4017188E3,8.195828E3,5.0464752E2,2.1629023E3,4.115992E3,1.2672934E4,3.439488E4,4.186672E3,5.4533203E1,1.215625E1,1.7733691E2,3.8373047E2,8.604935E2,1.0271206E3,1.1096777E3,1.6213577E3,2.4448418E3,1.1634883E4,2.3213418E3,3.9366875E3,1.128244E2,3.240867E3,1.1450939E4,3.098871E3,2.6558285E4,2.9880703E3,3.1634258E3,7.236508E3,0E0,1.3099138E3,1.3508102E4,2.6096348E3,1.0261719E1,7.0958984E1,1.046875E0,1.984375E1,2.5692383E1,2.4119946E2,6.1282935E2,8.9308105E1,1.0625131E3,7.7854517E2,7.6712134E2,6.391469E2,9.67114E2,1.3583928E3,1.1460334E3,2.2068144E2,0E0,0E0,0E0,0E0,0E0,0E0,0E0,0E0,0E0,0E0,0E0,0E0,0E0,0E0,0E0,0E0,0E0,0E0,0E0,0E0,0E0,0E0,0E0,0E0,0E0,0E0,0E0,0E0,0E0,0E0,0E0,0E0,0E0,0E0,0E0,0E0,0E0,0E0,0E0,0E0,0E0,0E0,0E0,0E0,0E0,0E0,0E0,0E0,0E0,0E0,0E0,0E0,0E0,0E0,0E0,0E0,0E0,0E0,0E0,0E0,0E0,0E0],"parents":[2147483647,0,0,1,1,2,2,3,3,4,4,5,5,6,6,7,7,8,8,9,9,10,10,11,11,12,12,13,13,14,14,15,15,16,16,17,17,18,18,19,19,20,20,21,21,22,22,23,23,24,24,25,25,26,26,27,27,28,28,29,29,30,30,31,31,32,32,33,33,34,34,35,35,36,36,37,37,38,38,39,39,40,40,41,41,42,42,44,44,45,45,46,46,47,47,48,48,49,49,50,50,51,51,52,52,53,53,54,54,55,55,56,56,57,57,58,58,59,59,60,60,61,61,62,62],"right_children":[2,4,6,8,10,12,14,16,18,20,22,24,26,28,30,32,34,36,38,40,42,44,46,48,50,52,54,56,58,60,62,64,66,68,70,72,74,76,78,80,82,84,86,-1,88,90,92,94,96,98,100,102,104,106,108,110,112,114,116,118,120,122,124,-1,-1,-1,-1,-1,-1,-1,-1,-1,-1,-1,-1,-1,-1,-1,-1,-1,-1,-1,-1,-1,-1,-1,-1,-1,-1,-1,-1,-1,-1,-1,-1,-1,-1,-1,-1,-1,-1,-1,-1,-1,-1,-1,-1,-1,-1,-1,-1,-1,-1,-1,-1,-1,-1,-1,-1,-1,-1,-1,-1,-1,-1],"split_conditions":[8.84E0,8.806E1,1.514E1,7.63E0,9.112E1,1.245E1,1.709E1,5.41E0,6.956E1,3.28E0,1.62E0,1.422E1,2.342E1,9.98E0,4.78E0,1.746E1,1.636E1,5.8E1,2.973E1,1.6E0,2.276E1,2.303E1,2.628E1,2.592E1,7.63E0,9.8122E0,1.23E1,3.151E1,9.8122E0,2.551E1,2.977E1,9.8122E0,9.8122E0,7.838E1,8.425E1,4.02E0,3.131E1,4.5E0,1.813E1,1.57E0,8.988E1,3.32E0,3.75E0,2.0955137E1,2.315E1,1.794E1,5.13E0,9.4E0,9.8988E0,1.498E1,3.864E1,3.06E0,1.471E1,3.91E0,3.831E1,1.3E0,1.7E0,2.717E1,2.565E1,1.788E1,6.725E1,5.71E0,1.047E1,4.0693003E-1,9.829446E-1,1.0697095E0,2.9013999E0,-1.4732786E-1,3.111598E-1,4.6940783E-1,6.409227E-1,-1.8510537E-1,-3.8696527E-1,-5.2804504E-2,4.5234337E0,4.1163954E-1,1.1118312E1,2.1512897E-1,5.666774E-1,1.1926321E0,9.953893E0,8.4551316E-1,1.2035754E0,2.6144595E0,1.1547992E0,4.5644436E0,6.541366E-1,5.156002E0,-2.3705466E-1,2.0831394E0,7.4815335E0,1.1717327E0,2.3866334E0,-5.069309E-1,-3.7827295E-1,-3.595794E-1,-2.724646E-1,-3.848211E-1,-3.931688E-1,-3.910587E-1,-3.6977583E-1,-3.9076793E-1,-3.2293725E-1,-3.3837014E-1,-1.6166174E-1,-1.2651168E-1,-3.085139E-1,-2.4369512E-1,-3.189724E-1,6.239935E-1,1.0765348E-1,-1.9221422E-1,3.853817E-2,-3.0923647E-1,-1.2200042E-1,-2.9605067E-1,-2.1494904E-3,8.7889075E-2,3.0260926E-1,3.5476252E-1,1.6227505E0,1.5852786E0,7.011567E-2,4.7505704E-1,-4.0157244E-1],"split_indices":[1,4,5,1,4,5,5,1,4,6,6,1,3,1,6,5,5,4,2,6,3,0,2,3,5,7,1,2,7,3,0,7,7,4,4,6,0,6,5,6,4,6,6,0,0,5,1,1,7,1,2,6,5,6,2,6,6,0,0,5,4,6,1,0,0,0,0,0,0,0,0,0,0,0,0,0,0,0,0,0,0,0,0,0,0,0,0,0,0,0,0,0,0,0,0,0,0,0,0,0,0,0,0,0,0,0,0,0,0,0,0,0,0,0,0,0,0,0,0,0,0,0,0,0,0],"split_type":[0,0,0,0,0,0,0,0,0,0,0,0,0,0,0,0,0,0,0,0,0,0,0,0,0,0,0,0,0,0,0,0,0,0,0,0,0,0,0,0,0,0,0,0,0,0,0,0,0,0,0,0,0,0,0,0,0,0,0,0,0,0,0,0,0,0,0,0,0,0,0,0,0,0,0,0,0,0,0,0,0,0,0,0,0,0,0,0,0,0,0,0,0,0,0,0,0,0,0,0,0,0,0,0,0,0,0,0,0,0,0,0,0,0,0,0,0,0,0,0,0,0,0,0,0],"sum_hessian":[3.27808E5,1.11015E5,2.16793E5,9.546E4,1.5555E4,1.64565E5,5.2228E4,5.878E4,3.668E4,1.2907E4,2.648E3,1.41836E5,2.2729E4,3.8012E4,1.4216E4,5.488E3,5.3292E4,3.729E3,3.2951E4,1.0528E4,2.379E3,3.5E1,2.613E3,1.2756E4,1.2908E5,8.238E3,1.4491E4,1.3254E4,2.4758E4,1.3856E4,3.6E2,2.836E3,2.652E3,3.987E3,4.9305E4,1.01E3,2.719E3,9.947E3,2.3004E4,4.09E2,1.0119E4,2.15E3,2.29E2,1E1,2.5E1,1.658E3,9.55E2,8.189E3,4.567E3,1.0954E5,1.954E4,4.597E3,3.641E3,6.856E3,7.635E3,5.467E3,7.787E3,1.5316E4,9.442E3,1.3157E4,6.99E2,2.39E2,1.21E2,1.776E3,1.06E3,2.291E3,3.61E2,1.878E3,2.109E3,2.832E4,2.0985E4,5.49E2,4.61E2,2.706E3,1.3E1,9.939E3,8E0,2.0468E4,2.536E3,3.76E2,3.3E1,7.135E3,2.984E3,1.43E2,2.007E3,1.72E2,5.7E1,4E0,2.1E1,1.616E3,4.2E1,7.52E2,2.03E2,6.4E1,8.125E3,3.426E3,1.141E3,3.715E3,1.05825E5,1.3241E4,6.299E3,3.981E3,6.16E2,2.701E3,9.4E2,4.003E3,2.853E3,1.913E3,5.722E3,3.85E2,5.082E3,1.676E3,6.111E3,2.321E3,1.2995E4,7.2E2,8.722E3,1.0873E4,2.284E3,6.13E2,8.6E1,1.79E2,6E1,3.6E1,8.5E1],"tree_param":{"num_deleted":"0","num_feature":"9","num_nodes":"125","size_leaf_vector":"1"}},{"base_weights":[6.8387046E-4,1.3474752E0,-6.332407E-1,1.113451E0,3.1972685E0,-8.523364E-1,1.6166209E-1,7.9300284E-1,1.4580315E0,2.7633328E0,4.692312E0,-8.9650667E-1,-5.1743954E-1,-3.3630718E-2,3.6744922E-1,6.611176E-1,2.5750988E0,1.4314702E0,5.9929037E0,2.6669924E0,7.7974477E0,8.407783E0,4.075905E0,-9.1289353E-1,-7.941204E-1,-6.6003066E-1,-3.411634E-1,-1.9908215E-1,1.9196938E-1,2.245351E-1,9.4138104E-1,1.8108038E0,5.83626E-1,5.1825655E-1,3.8936179E0,1.413211E0,4.9337196E0,2.101532E1,3.0977473E0,2.7846837E0,-1.3733481E-1,5.1266376E1,5.6294665E0,1.3808139E1,3.7868538E0,3.9134157E0,1.6519857E1,-7.5703984E-1,-9.1379374E-1,-8.776993E-1,-7.248632E-1,-8.7607116E-1,-4.336948E-1,-1.7478201E-1,-5.382329E-1,-3.9256394E-1,-2.8693909E-2,2.3239161E-1,-7.510672E-1,5.88723E0,1.9359595E-1,8.8048434E-1,6.0406933E0,4.869916E-1,5.032503E0,-5.239254E-2,2.0247765E-1,5.2694023E-2,1.1657368E0,2.2891653E0,9.5879835E-1,4.91867E-1,3.3419025E-1,3.0444476E-1,2.457426E0,8.8790375E-1,8.702151E0,6.6605697E0,5.666535E-1,8.2834834E-1,4.570937E0,-2.090937E-1,2.2303646E0,-1.5371991E0,2.583762E1,9.3222797E-1,5.6688495E0,2.225749E0,9.544907E0,1.9258337E0,4.436478E-1,9.85054E-1,2.0543551E0,5.4564114E0,-1.2001146E0,-2.6223502E-1,1.6407711E-2,-2.7552223E-1,-2.6869696E-1,-1.0437257E0,-2.6263505E-1,-1.978505E-1,-2.717353E-1,-2.8542995E-1,-1.3883923E-1,7.35807E-1,-1.4027925E-1,-1.2989959E-1,5.007546E-2,-1.5541261E-1,-4.0638563E-1,-9.900119E-2,-4.3555E-1,2.1024857E-1,-6.252955E-2,6.548581E-2,8.802076E-1,-1.6827601E-1,-4.274325E-1,4.764653E0,6.776789E-1,-3.0109387E-2,1.0661919E-1,6.425933E-2,3.574685E-1,1.5422912E0,8.193859E0],"categories":[],"categories_nodes":[],"categories_segments":[],"categories_sizes":[],"default_left":[0,0,0,0,0,0,0,0,0,0,0,0,0,0,0,0,0,0,0,0,0,0,0,0,0,0,0,0,0,0,0,0,0,0,0,0,0,0,0,0,0,0,0,0,0,0,0,0,0,0,0,0,0,0,0,0,0,0,0,0,0,0,0,0,0,0,0,0,0,0,0,0,0,0,0,0,0,0,0,0,0,0,0,0,0,0,0,0,0,0,0,0,0,0,0,0,0,0,0,0,0,0,0,0,0,0,0,0,0,0,0,0,0,0,0,0,0,0,0,0,0,0,0,0,0,0,0],"id":3,"left_children":[1,3,5,7,9,11,13,15,17,19,21,23,25,27,29,31,33,35,37,39,41,43,45,47,49,51,53,55,57,59,61,63,65,67,69,71,73,75,77,79,81,83,85,87,89,91,93,95,97,99,101,103,105,107,109,111,113,115,117,119,121,123,125,-1,-1,-1,-1,-1,-1,-1,-1,-1,-1,-1,-1,-1,-1,-1,-1,-1,-1,-1,-1,-1,-1,-1,-1,-1,-1,-1,-1,-1,-1,-1,-1,-1,-1,-1,-1,-1,-1,-1,-1,-1,-1,-1,-1,-1,-1,-1,-1,-1,-1,-1,-1,-1,-1,-1,-1,-1,-1,-1,-1,-1,-1,-1,-1],"loss_changes":[2.798724E5,4.5413766E4,3.8819484E4,1.0282719E4,7.630625E3,2.584289E3,1.9355828E3,1.1340711E4,5.396836E3,4.4091016E3,6.032586E3,2.5827344E2,5.116079E2,9.224349E2,1.9233088E3,4.002252E3,9.015334E3,2.8461406E3,1.1286377E4,2.9589062E3,1.5826403E4,9.330668E3,4.5333906E3,1.7976562E1,1.2269238E2,5.500127E2,2.985453E2,4.6999957E2,3.9875357E2,3.28857E3,1.4464146E3,7.9327217E3,2.9146074E3,1.4991921E3,5.257338E3,3.0045469E3,2.9407744E3,5.974664E3,5.0389756E3,2.47775E3,1.5391785E3,1.6167008E4,5.428582E3,1.96683E4,1.23003E3,4.129043E3,1.0654712E3,7.322479E1,1.025E1,5.3416992E1,1.3725E2,1.7889307E2,5.392578E2,4.359416E2,6.801807E1,4.4192517E2,9.9431946E2,3.814698E2,5.428537E1,3.6631199E3,8.8832623E2,9.575232E2,9.122333E2,0E0,0E0,0E0,0E0,0E0,0E0,0E0,0E0,0E0,0E0,0E0,0E0,0E0,0E0,0E0,0E0,0E0,0E0,0E0,0E0,0E0,0E0,0E0,0E0,0E0,0E0,0E0,0E0,0E0,0E0,0E0,0E0,0E0,0E0,0E0,0E0,0E0,0E0,0E0,0E0,0E0,0E0,0E0,0E0,0E0,0E0,0E0,0E0,0E0,0E0,0E0,0E0,0E0,0E0,0E0,0E0,0E0,0E0,0E0,0E0,0E0,0E0,0E0,0E0],"parents":[2147483647,0,0,1,1,2,2,3,3,4,4,5,5,6,6,7,7,8,8,9,9,10,10,11,11,12,12,13,13,14,14,15,15,16,16,17,17,18,18,19,19,20,20,21,21,22,22,23,23,24,24,25,25,26,26,27,27,28,28,29,29,30,30,31,31,32,32,33,33,34,34,35,35,36,36,37,37,38,38,39,39,40,40,41,41,42,42,43,43,44,44,45,45,46,46,47,47,48,48,49,49,50,50,51,51,52,52,53,53,54,54,55,55,56,56,57,57,58,58,59,59,60,60,61,61,62,62],"right_children":[2,4,6,8,10,12,14,16,18,20,22,24,26,28,30,32,34,36,38,40,42,44,46,48,50,52,54,56,58,60,62,64,66,68,70,72,74,76,78,80,82,84,86,88,90,92,94,96,98,100,102,104,106,108,110,112,114,116,118,120,122,124,126,-1,-1,-1,-1,-1,-1,-1,-1,-1,-1,-1,-1,-1,-1,-1,-1,-1,-1,-1,-1,-1,-1,-1,-1,-1,-1,-1,-1,-1,-1,-1,-1,-1,-1,-1,-1,-1,-1,-1,-1,-1,-1,-1,-1,-1,-1,-1,-1,-1,-1,-1,-1,-1,-1,-1,-1,-1,-1,-1,-1,-1,-1,-1,-1],"split_conditions":[8.61E0,8.869E1,1.581E1,8.275E1,9.112E1,1.41E1,1.685E1,1.825E1,4.31E0,7.02E0,2.19E0,1.093E1,9.8122E0,9.8122E0,9.8122E0,5.88E0,2.05E0,2.671E1,8.325E1,2.844E1,1.6E0,2.6E1,1.862E1,1.134E1,2.401E1,2.463E1,1.171E1,2.824E1,1.271E1,2.967E1,1.825E1,5.18E0,6.956E1,1.88E1,2.694E1,2.869E1,2.29E0,8.306E1,4.21E0,2.362E1,3.47E0,2.328E1,2.491E1,2.181E1,1.782E1,5.02E0,2.476E1,3.851E1,2.325E1,8.8E0,4.31E0,1.40717E1,1.5E0,2.342E1,7.156E1,2.355E1,3.437E1,2.665E1,6.381E1,8.225E1,2.253E1,1.96E0,2.933E1,4.869916E-1,5.032503E0,-5.239254E-2,2.0247765E-1,5.2694023E-2,1.1657368E0,2.2891653E0,9.5879835E-1,4.91867E-1,3.3419025E-1,3.0444476E-1,2.457426E0,8.8790375E-1,8.702151E0,6.6605697E0,5.666535E-1,8.2834834E-1,4.570937E0,-2.090937E-1,2.2303646E0,-1.5371991E0,2.583762E1,9.3222797E-1,5.6688495E0,2.225749E0,9.544907E0,1.9258337E0,4.436478E-1,9.85054E-1,2.0543551E0,5.4564114E0,-1.2001146E0,-2.6223502E-1,1.6407711E-2,-2.7552223E-1,-2.6869696E-1,-1.0437257E0,-2.6263505E-1,-1.978505E-1,-2.717353E-1,-2.8542995E-1,-1.3883923E-1,7.35807E-1,-1.4027925E-1,-1.2989959E-1,5.007546E-2,-1.5541261E-1,-4.0638563E-1,-9.900119E-2,-4.3555E-1,2.1024857E-1,-6.252955E-2,6.548581E-2,8.802076E-1,-1.6827601E-1,-4.274325E-1,4.764653E0,6.776789E-1,-3.0109387E-2,1.0661919E-1,6.425933E-2,3.574685E-1,1.5422912E0,8.193859E0],"split_indices":[1,4,5,4,4,5,5,5,6,1,6,5,7,7,7,1,6,0,4,2,6,2,5,1,3,3,1,0,1,2,5,6,4,5,0,2,6,4,1,3,6,0,0,3,5,1,0,2,3,1,6,8,6,3,4,3,2,3,4,4,3,6,0,0,0,0,0,0,0,0,0,0,0,0,0,0,0,0,0,0,0,0,0,0,0,0,0,0,0,0,0,0,0,0,0,0,0,0,0,0,0,0,0,0,0,0,0,0,0,0,0,0,0,0,0,0,0,0,0,0,0,0,0,0,0,0,0],"split_type":[0,0,0,0,0,0,0,0,0,0,0,0,0,0,0,0,0,0,0,0,0,0,0,0,0,0,0,0,0,0,0,0,0,0,0,0,0,0,0,0,0,0,0,0,0,0,0,0,0,0,0,0,0,0,0,0,0,0,0,0,0,0,0,0,0,0,0,0,0,0,0,0,0,0,0,0,0,0,0,0,0,0,0,0,0,0,0,0,0,0,0,0,0,0,0,0,0,0,0,0,0,0,0,0,0,0,0,0,0,0,0,0,0,0,0,0,0,0,0,0,0,0,0,0,0,0,0],"sum_hessian":[3.27808E5,1.04914E5,2.22894E5,9.3133E4,1.1781E4,1.74733E5,4.8161E4,4.8258E4,4.4875E4,9.133E3,2.648E3,1.54371E5,2.0362E4,2.4711E4,2.345E4,4.4934E4,3.324E3,4.4615E4,2.6E2,8.963E3,1.7E2,3.75E2,2.273E3,1.33066E5,2.1305E4,1.1255E4,9.107E3,1.4256E4,1.0455E4,1.8776E4,4.674E3,2.836E3,4.2098E4,1.299E3,2.025E3,4.4385E4,2.3E2,4.1E1,2.19E2,8.602E3,3.61E2,7E0,1.63E2,1.72E2,2.03E2,2.245E3,2.8E1,7.69E2,1.32297E5,9.649E3,1.1656E4,5.757E3,5.498E3,4.939E3,4.168E3,6.675E3,7.581E3,1.0026E4,4.29E2,1.01E2,1.8675E4,4.62E3,5.4E1,2.802E3,3.4E1,4.524E3,3.7574E4,1.18E3,1.19E2,3.17E2,1.708E3,2.5268E4,1.9117E4,1.05E2,1.25E2,1.3E1,2.8E1,1.2E1,2.07E2,8.587E3,1.5E1,3.37E2,2.4E1,3E0,4E0,1.38E2,2.5E1,1.28E2,4.4E1,9.4E1,1.09E2,1.85E3,3.95E2,2.6E1,2E0,6.72E2,9.7E1,1.05429E5,2.6868E4,7E0,9.642E3,8.566E3,3.09E3,4.868E3,8.89E2,6.3E1,5.435E3,2.813E3,2.126E3,4.069E3,9.9E1,6.304E3,3.71E2,1.498E3,6.083E3,9.975E3,5.1E1,3.36E2,9.3E1,2.6E1,7.5E1,6.63E3,1.2045E4,1.471E3,3.149E3,5.3E1,1E0],"tree_param":{"num_deleted":"0","num_feature":"9","num_nodes":"127","size_leaf_vector":"1"}},{"base_weights":[7.9263304E-4,-5.628328E-1,7.5823605E-1,-5.67039E-1,7.1138763E0,5.5780905E-1,1.8592651E0,-6.228833E-1,-2.3373757E-1,1.9547138E1,3.8824024E0,8.630115E-1,2.3273908E-1,1.5438744E0,2.8687556E0,-6.3682234E-1,-5.1834166E-1,-2.0924187E0,-2.0644666E-1,2.2621952E1,-1.93272E0,2.2728484E0,7.2478614E0,6.6380936E-1,1.2953371E0,6.047229E-1,1.2468503E-1,1.5107824E0,8.8300905E0,9.665415E0,2.7302227E0,-1.0353513E0,-6.3599926E-1,-6.074695E-1,-4.3984425E-1,-2.5966556E0,1.6426861E0,5.525928E-1,-2.4196383E-1,5.7315075E-1,7.915783E0,7.1108313E0,-1.8304127E0,4.2350164E-1,1.0204307E0,5.1052755E-1,2.1086552E0,1.631868E0,4.657099E-1,1.1964067E-2,4.7949433E-1,6.650933E0,1.474259E0,2.639326E1,4.6544437E0,2.4935701E1,2.9564662E0,3.2822604E0,1.9759235E0,-3.8350984E-1,-2.7217633E-1,-1.0339592E-1,-1.9114095E-1,-5.692178E-1,-1.7677525E-1,-1.3943817E-1,7.286055E-1,-1.8480937E0,-6.3623315E-1,5.0244827E0,-2.9291472E-1,6.252415E-1,-1.1322889E-1,-4.3509465E-1,-6.767951E-2,2.5345592E0,-8.617835E-1,1.4396466E-1,-1.6176101E0,-1.5870804E-1,1.7327453E-1,1.1578901E0,2.8980112E-1,1.4816043E-1,5.572132E0,8.603899E0,6.198606E-1,1.5612963E0,4.3812233E-1,1.3360068E-1,2.172075E0,2.1256823E-3,3.2897732E0,1.00041725E-1,4.6747854E-1,2.09851E-1,9.977207E0,1.4450381E0,4.2342615E-1,1.37745075E1,1.8037672E0,-9.7553335E-2,3.2811365E0,-4.390493E-1,1.1272932E1,-2.1199399E-1,5.8907166E0,8.298762E0,9.2844534E-1,5.1340914E-1,5.7703753E0],"categories":[],"categories_nodes":[],"categories_segments":[],"categories_sizes":[],"default_left":[0,0,0,0,0,0,0,0,0,0,0,0,0,0,0,0,0,0,0,0,0,0,0,0,0,0,0,0,0,0,0,0,0,0,0,0,0,0,0,0,0,0,0,0,0,0,0,0,0,0,0,0,0,0,0,0,0,0,0,0,0,0,0,0,0,0,0,0,0,0,0,0,0,0,0,0,0,0,0,0,0,0,0,0,0,0,0,0,0,0,0,0,0,0,0,0,0,0,0,0,0,0,0,0,0,0,0,0,0,0,0],"id":4,"left_children":[1,3,5,7,9,11,13,15,17,19,21,23,25,27,29,31,33,35,37,39,-1,41,-1,43,45,47,49,51,53,55,57,59,61,63,65,67,69,71,73,-1,-1,75,77,79,81,83,85,87,89,91,93,95,97,99,101,103,105,107,109,-1,-1,-1,-1,-1,-1,-1,-1,-1,-1,-1,-1,-1,-1,-1,-1,-1,-1,-1,-1,-1,-1,-1,-1,-1,-1,-1,-1,-1,-1,-1,-1,-1,-1,-1,-1,-1,-1,-1,-1,-1,-1,-1,-1,-1,-1,-1,-1,-1,-1,-1,-1],"loss_changes":[1.399468E5,6.0729883E3,3.0862258E4,3.4963086E3,4.0624194E3,1.173868E4,6.852922E3,2.341211E2,1.3670656E3,1.8239126E3,2.653972E3,5.254621E3,2.302941E3,3.9440938E3,4.800051E3,4.5910156E1,1.3220117E2,7.3878284E2,7.1643274E2,1.4307861E3,0E0,1.5614333E3,0E0,3.5798945E3,1.2284918E4,1.8407573E3,1.7757875E3,3.0577969E3,5.3041353E3,1.0375931E4,2.0859336E3,7.8988647E0,4.671875E1,2.0719214E2,7.218981E2,5.703137E2,1.8757936E3,1.6929403E3,5.016278E2,0E0,0E0,5.0504382E2,3.564085E2,3.6637231E3,2.5951465E3,2.9389836E3,1.0602836E4,9.33864E2,1.5648945E3,1.8006355E3,1.6857717E3,1.8186555E4,3.4013086E3,5.294075E3,1.9119633E3,1.0399861E4,4.4129307E3,1.3167133E4,9.674291E3,0E0,0E0,0E0,0E0,0E0,0E0,0E0,0E0,0E0,0E0,0E0,0E0,0E0,0E0,0E0,0E0,0E0,0E0,0E0,0E0,0E0,0E0,0E0,0E0,0E0,0E0,0E0,0E0,0E0,0E0,0E0,0E0,0E0,0E0,0E0,0E0,0E0,0E0,0E0,0E0,0E0,0E0,0E0,0E0,0E0,0E0,0E0,0E0,0E0,0E0,0E0,0E0],"parents":[2147483647,0,0,1,1,2,2,3,3,4,4,5,5,6,6,7,7,8,8,9,9,10,10,11,11,12,12,13,13,14,14,15,15,16,16,17,17,18,18,19,19,21,21,23,23,24,24,25,25,26,26,27,27,28,28,29,29,30,30,31,31,32,32,33,33,34,34,35,35,36,36,37,37,38,38,41,41,42,42,43,43,44,44,45,45,46,46,47,47,48,48,49,49,50,50,51,51,52,52,53,53,54,54,55,55,56,56,57,57,58,58],"right_children":[2,4,6,8,10,12,14,16,18,20,22,24,26,28,30,32,34,36,38,40,-1,42,-1,44,46,48,50,52,54,56,58,60,62,64,66,68,70,72,74,-1,-1,76,78,80,82,84,86,88,90,92,94,96,98,100,102,104,106,108,110,-1,-1,-1,-1,-1,-1,-1,-1,-1,-1,-1,-1,-1,-1,-1,-1,-1,-1,-1,-1,-1,-1,-1,-1,-1,-1,-1,-1,-1,-1,-1,-1,-1,-1,-1,-1,-1,-1,-1,-1,-1,-1,-1,-1,-1,-1,-1,-1,-1,-1,-1,-1],"split_conditions":[1.617E1,9.062E1,8.706E1,1.471E1,1.575E1,8.02E0,9.019E1,1.245E1,5.32E0,3.79E0,3.83E0,1.77E1,3.051E1,2.358E1,1.72E0,9.4E0,2.463E1,1.611E1,2.809E1,2.83E0,-1.93272E0,2.8E0,7.2478614E0,9.8122E0,2.16E0,1.43E0,9.8122E0,1.624E1,8.725E1,1.685E1,9.8122E0,8.61E0,1.073E1,8.9E0,5.556E1,2.236E1,1.33247E1,2.04E0,2.844E1,5.7315075E-1,7.915783E0,1.611E1,3.4E0,1.672E1,5.02E0,2.933E1,2.757E1,9.6E-1,2.661E1,8.531E1,1.746E1,8.95E1,1.47E0,2.576E1,3.08E0,2.095E1,2.491E1,2.078E1,1.819E1,-3.8350984E-1,-2.7217633E-1,-1.0339592E-1,-1.9114095E-1,-5.692178E-1,-1.7677525E-1,-1.3943817E-1,7.286055E-1,-1.8480937E0,-6.3623315E-1,5.0244827E0,-2.9291472E-1,6.252415E-1,-1.1322889E-1,-4.3509465E-1,-6.767951E-2,2.5345592E0,-8.617835E-1,1.4396466E-1,-1.6176101E0,-1.5870804E-1,1.7327453E-1,1.1578901E0,2.8980112E-1,1.4816043E-1,5.572132E0,8.603899E0,6.198606E-1,1.5612963E0,4.3812233E-1,1.3360068E-1,2.172075E0,2.1256823E-3,3.2897732E0,1.00041725E-1,4.6747854E-1,2.09851E-1,9.977207E0,1.4450381E0,4.2342615E-1,1.37745075E1,1.8037672E0,-9.7553335E-2,3.2811365E0,-4.390493E-1,1.1272932E1,-2.1199399E-1,5.8907166E0,8.298762E0,9.2844534E-1,5.1340914E-1,5.7703753E0],"split_indices":[5,4,4,5,5,1,4,5,1,6,6,5,2,3,6,1,3,5,2,6,0,6,0,7,6,6,7,5,4,5,7,1,1,1,4,0,8,6,2,0,0,5,6,5,1,0,2,6,0,4,5,4,6,0,6,3,0,3,5,0,0,0,0,0,0,0,0,0,0,0,0,0,0,0,0,0,0,0,0,0,0,0,0,0,0,0,0,0,0,0,0,0,0,0,0,0,0,0,0,0,0,0,0,0,0,0,0,0,0,0,0],"split_type":[0,0,0,0,0,0,0,0,0,0,0,0,0,0,0,0,0,0,0,0,0,0,0,0,0,0,0,0,0,0,0,0,0,0,0,0,0,0,0,0,0,0,0,0,0,0,0,0,0,0,0,0,0,0,0,0,0,0,0,0,0,0,0,0,0,0,0,0,0,0,0,0,0,0,0,0,0,0,0,0,0,0,0,0,0,0,0,0,0,0,0,0,0,0,0,0,0,0,0,0,0,0,0,0,0,0,0,0,0,0,0],"sum_hessian":[3.27808E5,1.87951E5,1.39857E5,1.87849E5,1.02E2,1.1832E5,2.1537E4,1.60891E5,2.6958E4,2E1,8.2E1,6.1024E4,5.7296E4,1.6412E4,5.125E3,1.41958E5,1.8933E4,3.89E2,2.6569E4,1.8E1,2E0,7.7E1,5E0,4.1777E4,1.9247E4,1.2896E4,4.44E4,1.6339E4,7.3E1,1.01E2,5.024E3,2.9E2,1.41668E5,8.863E3,1.007E4,3.43E2,4.6E1,1.187E3,2.5382E4,3E0,1.5E1,3.5E1,4.2E1,2.496E4,1.6817E4,9.796E3,9.451E3,1.536E3,1.136E4,3.3696E4,1.0704E4,1.14E2,1.6225E4,1.3E1,6E1,3E1,7.1E1,2.899E3,2.125E3,9.7E1,1.93E2,5.52E2,1.41116E5,1.22E2,8.741E3,9.984E3,8.6E1,3.9E1,3.04E2,6E0,4E1,4.48E2,7.39E2,3.38E2,2.5044E4,3.1E1,4E0,2.6E1,1.6E1,3.475E3,2.1485E4,3.15E2,1.6502E4,9.788E3,8E0,1.4E1,9.437E3,6.9E1,1.467E3,1.1327E4,3.3E1,3.3682E4,1.4E1,9.429E3,1.275E3,9.4E1,2E1,2.98E2,1.5927E4,6E0,7E0,3.4E1,2.6E1,1E1,2E1,5.9E1,1.2E1,2.1E1,2.878E3,2.094E3,3.1E1],"tree_param":{"num_deleted":"0","num_feature":"9","num_nodes":"111","size_leaf_vector":"1"}},{"base_weights":[8.677176E-4,5.486153E-1,-3.8543484E-1,4.156039E-1,1.3965961E0,-1.3422543E-1,-4.4068775E-1,6.7698635E-2,5.547885E-1,1.2698269E0,2.9937353E0,-4.7324267E-1,-2.496086E-2,-4.3950027E-1,-1.039757E0,2.7682984E-1,-3.717969E-1,3.9333007E-1,9.759081E-1,2.5532916E0,1.1390654E0,5.416719E0,1.0910361E0,-4.1028318E-1,-8.752626E-1,-1.4321293E-1,2.0504957E-1,-3.45453E-1,-4.4755787E-1,-6.8964595E-1,-1.2776618E0,6.375384E-1,-3.4754336E-2,-2.6914682E0,-3.5204887E-1,5.024228E0,3.8066137E-1,2.6351273E0,7.80212E-1,6.426599E0,1.7174845E0,9.6249485E-1,1.9236225E0,1.9819235E1,3.7913585E0,-1.0768049E0,2.685896E0,-6.528078E-1,-2.955854E-1,4.5952363E0,-1.0369649E0,-5.235763E-2,-3.8624117E-1,5.6622148E0,1.9273835E-1,-3.4993038E-1,1.9807497E0,-4.4528592E-1,-1.1888326E0,-6.396357E-1,-8.701026E-1,-9.00199E-1,-1.3665457E0,4.8461246E-1,1.3369055E-1,-1.07200585E-1,5.104178E-2,-3.8633624E-1,-1.3115594E0,-1.3483968E-1,-2.0075668E-2,7.3893493E-1,4.804616E0,2.6217422E-1,8.7694705E-2,2.0109353E0,5.86568E-1,1.4951289E-1,4.9914363E-1,9.738222E0,1.5404848E0,4.9286675E-1,4.565696E0,3.493126E-1,4.2315733E-2,4.8063725E-1,1.8681476E0,1.0700365E1,-1.6319691E0,8.0072796E-1,2.6686745E0,-5.461572E-1,3.2638123E0,-6.1410844E-1,1.1256688E0,-2.5001296E-1,-5.5988424E-2,-3.718034E-2,-1.6384488E-1,3.0965525E-1,4.6802254E0,-1.5449578E-1,-4.2996502E-1,-9.66326E-2,3.777224E-2,-9.7730145E-2,-2.5582317E-1,1.9585707E0,1.6939679E-1,-5.5524867E-2,9.557795E-2,-1.01703934E-1,-3.412561E-1,-2.0814663E-1,1.1822151E0,-1.3382319E-1,2.2847177E-1,-2.7233326E-1,-4.965489E-1,-9.5608786E-2,-1.9680993E-1,-1.1713792E-1,-2.753281E-1,-2.0658381E-1,-3.3631912E-1,-4.290405E-1,-2.3884487E-1],"categories":[],"categories_nodes":[],"categories_segments":[],"categories_sizes":[],"default_left":[0,0,0,0,0,0,0,0,0,0,0,0,0,0,0,0,0,0,0,0,0,0,0,0,0,0,0,0,0,0,0,0,0,0,0,0,0,0,0,0,0,0,0,0,0,0,0,0,0,0,0,0,0,0,0,0,0,0,0,0,0,0,0,0,0,0,0,0,0,0,0,0,0,0,0,0,0,0,0,0,0,0,0,0,0,0,0,0,0,0,0,0,0,0,0,0,0,0,0,0,0,0,0,0,0,0,0,0,0,0,0,0,0,0,0,0,0,0,0,0,0,0,0,0,0,0,0],"id":5,"left_children":[1,3,5,7,9,11,13,15,17,19,21,23,25,27,29,31,33,35,37,39,41,43,45,47,49,51,53,55,57,59,61,63,65,67,69,71,73,75,77,79,81,83,85,87,89,91,93,95,97,99,101,103,105,107,109,111,113,115,117,119,121,123,125,-1,-1,-1,-1,-1,-1,-1,-1,-1,-1,-1,-1,-1,-1,-1,-1,-1,-1,-1,-1,-1,-1,-1,-1,-1,-1,-1,-1,-1,-1,-1,-1,-1,-1,-1,-1,-1,-1,-1,-1,-1,-1,-1,-1,-1,-1,-1,-1,-1,-1,-1,-1,-1,-1,-1,-1,-1,-1,-1,-1,-1,-1,-1,-1],"loss_changes":[6.9363375E4,1.52910625E4,2.6681719E3,5.6748516E3,3.7179688E3,1.2838837E3,1.11640625E2,3.0781516E3,5.6910684E3,2.8555352E3,6.2224814E3,2.1346802E2,7.1300226E2,1.19021484E2,2.502301E1,2.5504004E3,4.936974E2,3.5479912E3,7.5303965E3,5.084532E3,2.1396777E3,1.3829971E4,2.623603E3,2.0303845E2,1.0158538E3,3.8225784E2,5.969172E2,1.2999829E2,2.4341797E2,5.986099E-1,4.943115E0,1.9727949E3,8.048306E2,2.0901544E2,2.9739978E2,4.6052344E3,2.6293838E3,6.754879E3,5.167042E3,9.215244E3,1.280262E3,2.0928145E3,3.9180068E3,2.4213414E4,3.0408936E3,2.8830422E3,2.2131648E3,1.9724054E2,2.1334583E2,1.2779335E3,2.2905566E2,6.060834E2,1.3262567E2,8.4639404E1,4.224035E2,1.06164795E2,1.2854391E2,1.3826172E2,5.642804E1,3.3823013E-1,2.1311569E-1,1.0038338E0,4.1932373E0,0E0,0E0,0E0,0E0,0E0,0E0,0E0,0E0,0E0,0E0,0E0,0E0,0E0,0E0,0E0,0E0,0E0,0E0,0E0,0E0,0E0,0E0,0E0,0E0,0E0,0E0,0E0,0E0,0E0,0E0,0E0,0E0,0E0,0E0,0E0,0E0,0E0,0E0,0E0,0E0,0E0,0E0,0E0,0E0,0E0,0E0,0E0,0E0,0E0,0E0,0E0,0E0,0E0,0E0,0E0,0E0,0E0,0E0,0E0,0E0,0E0,0E0,0E0,0E0],"parents":[2147483647,0,0,1,1,2,2,3,3,4,4,5,5,6,6,7,7,8,8,9,9,10,10,11,11,12,12,13,13,14,14,15,15,16,16,17,17,18,18,19,19,20,20,21,21,22,22,23,23,24,24,25,25,26,26,27,27,28,28,29,29,30,30,31,31,32,32,33,33,34,34,35,35,36,36,37,37,38,38,39,39,40,40,41,41,42,42,43,43,44,44,45,45,46,46,47,47,48,48,49,49,50,50,51,51,52,52,53,53,54,54,55,55,56,56,57,57,58,58,59,59,60,60,61,61,62,62],"right_children":[2,4,6,8,10,12,14,16,18,20,22,24,26,28,30,32,34,36,38,40,42,44,46,48,50,52,54,56,58,60,62,64,66,68,70,72,74,76,78,80,82,84,86,88,90,92,94,96,98,100,102,104,106,108,110,112,114,116,118,120,122,124,126,-1,-1,-1,-1,-1,-1,-1,-1,-1,-1,-1,-1,-1,-1,-1,-1,-1,-1,-1,-1,-1,-1,-1,-1,-1,-1,-1,-1,-1,-1,-1,-1,-1,-1,-1,-1,-1,-1,-1,-1,-1,-1,-1,-1,-1,-1,-1,-1,-1,-1,-1,-1,-1,-1,-1,-1,-1,-1,-1,-1,-1,-1,-1,-1],"split_conditions":[9.98E0,8.762E1,1.23E1,1.678E1,9.194E1,2.206E1,7.125E1,2.91E0,2.7E0,1.33137E1,3.89E0,1.697E1,1.648E1,1.33E1,1.532E1,2.165E1,4.64E0,2.682E1,5.88E0,2.177E1,3.28E0,2.13E0,9.8122E0,1.9E0,1.4E0,3.95E0,1.11E0,7.094E1,1.617E1,1.495E1,3.233E1,1.43E0,2.627E1,1.617E1,9.28E0,2.11E0,2.855E1,7.819E1,1.788E1,1.59E0,2.398E1,2.239E1,1.819E1,2.202E1,1.776E1,1.862E1,2.066E1,1.63E1,1.134E1,1.33E0,3.176E1,2.31E0,6.381E1,3.001E1,2.04E0,1.715E1,2.658E1,1.611E1,3.65E0,2.13E0,1.24E1,2.71E0,2.157E1,4.8461246E-1,1.3369055E-1,-1.07200585E-1,5.104178E-2,-3.8633624E-1,-1.3115594E0,-1.3483968E-1,-2.0075668E-2,7.3893493E-1,4.804616E0,2.6217422E-1,8.7694705E-2,2.0109353E0,5.86568E-1,1.4951289E-1,4.9914363E-1,9.738222E0,1.5404848E0,4.9286675E-1,4.565696E0,3.493126E-1,4.2315733E-2,4.8063725E-1,1.8681476E0,1.0700365E1,-1.6319691E0,8.0072796E-1,2.6686745E0,-5.461572E-1,3.2638123E0,-6.1410844E-1,1.1256688E0,-2.5001296E-1,-5.5988424E-2,-3.718034E-2,-1.6384488E-1,3.0965525E-1,4.6802254E0,-1.5449578E-1,-4.2996502E-1,-9.66326E-2,3.777224E-2,-9.7730145E-2,-2.5582317E-1,1.9585707E0,1.6939679E-1,-5.5524867E-2,9.557795E-2,-1.01703934E-1,-3.412561E-1,-2.0814663E-1,1.1822151E0,-1.3382319E-1,2.2847177E-1,-2.7233326E-1,-4.965489E-1,-9.5608786E-2,-1.9680993E-1,-1.1713792E-1,-2.753281E-1,-2.0658381E-1,-3.3631912E-1,-4.290405E-1,-2.3884487E-1],"split_indices":[1,4,1,5,4,3,4,6,6,8,1,5,5,1,5,3,1,2,1,3,6,6,7,6,6,6,6,4,5,5,2,6,0,5,1,6,2,4,5,6,3,3,5,3,5,5,3,5,1,6,2,6,4,0,6,5,0,5,6,6,1,6,3,0,0,0,0,0,0,0,0,0,0,0,0,0,0,0,0,0,0,0,0,0,0,0,0,0,0,0,0,0,0,0,0,0,0,0,0,0,0,0,0,0,0,0,0,0,0,0,0,0,0,0,0,0,0,0,0,0,0,0,0,0,0,0,0],"split_type":[0,0,0,0,0,0,0,0,0,0,0,0,0,0,0,0,0,0,0,0,0,0,0,0,0,0,0,0,0,0,0,0,0,0,0,0,0,0,0,0,0,0,0,0,0,0,0,0,0,0,0,0,0,0,0,0,0,0,0,0,0,0,0,0,0,0,0,0,0,0,0,0,0,0,0,0,0,0,0,0,0,0,0,0,0,0,0,0,0,0,0,0,0,0,0,0,0,0,0,0,0,0,0,0,0,0,0,0,0,0,0,0,0,0,0,0,0,0,0,0,0,0,0,0,0,0,0],"sum_hessian":[3.27808E5,1.35574E5,1.92234E5,1.17193E5,1.8381E4,3.4659E4,1.57575E5,3.3488E4,8.3705E4,1.7031E4,1.35E3,8.447E3,2.6212E4,1.57265E5,3.1E2,2.2691E4,1.0797E4,6.0508E4,2.3197E4,1.573E3,1.5458E4,5.93E2,7.57E2,7.305E3,1.142E3,1.7312E4,8.9E3,1.2414E4,1.44851E5,1.27E2,1.83E2,1.0516E4,1.2175E4,9E1,1.0707E4,1.64E2,6.0344E4,2.446E3,2.0751E4,2.78E2,1.295E3,1.262E4,2.838E3,5.9E1,5.34E2,3.21E2,4.36E2,2.344E3,4.961E3,3.2E1,1.11E3,1.2602E4,4.71E3,1.9E1,8.881E3,1.2391E4,2.3E1,1.4441E5,4.41E2,1.03E2,2.4E1,3.7E1,1.46E2,1.724E3,8.792E3,4.729E3,7.446E3,5E1,4E1,7.98E3,2.727E3,1.34E2,3E1,9.165E3,5.1179E4,3.49E2,2.097E3,1.5734E4,5.017E3,1.2E1,2.66E2,1.289E3,6E0,1.013E4,2.49E3,2.642E3,1.96E2,3.6E1,2.3E1,4.39E2,9.5E1,3.03E2,1.8E1,8E1,3.56E2,1.689E3,6.55E2,2.945E3,2.016E3,2.5E1,7E0,4.8E2,6.3E2,5.014E3,7.588E3,4.171E3,5.39E2,1.6E1,3E0,2.219E3,6.662E3,1.2223E4,1.68E2,1E1,1.3E1,1.44316E5,9.4E1,2.77E2,1.64E2,6E0,9.7E1,3E0,2.1E1,2.1E1,1.6E1,1.3E2,1.6E1],"tree_param":{"num_deleted":"0","num_feature":"9","num_nodes":"127","size_leaf_vector":"1"}},{"base_weights":[7.48679E-4,4.7676945E-1,-2.2331072E-1,4.0094417E-1,1.4057199E0,-3.005195E-1,3.5044797E-2,2.9838678E-1,6.9971275E-1,1.8451419E0,6.7474866E-1,-3.119122E-1,-2.1392582E-1,9.573829E-2,-1.925394E-1,1.2057677E-1,5.4636514E-1,3.745551E-1,1.5111096E0,1.6110708E0,1.9667898E1,1.5074745E-1,2.9533172E0,-3.179002E-1,-2.8661072E-1,-2.2379315E-1,6.722799E-1,1.3103214E-2,3.166596E-1,-6.4745605E-2,-5.0899947E-1,4.0557683E-1,-1.4580026E-1,2.077331E0,5.027493E-1,1.1921702E1,3.4837657E-1,6.7041073E0,1.3383946E0,3.0893304E0,7.860519E-1,1.8471535E1,1.4271432E1,4.096754E0,-1.721269E-1,-1.6562535E-1,5.673761E0,-3.7093627E-1,-3.1652611E-1,-3.2389E-1,-2.1969861E-1,-3.0590054E-1,-1.188423E-1,1.7286956E-1,2.282435E0,-3.572553E-1,6.6329345E-2,1.4951229E-1,9.7447795E-1,2.1923272E-2,-6.9425887E-1,-5.669434E-1,2.4420674E0,6.394053E-2,2.9667923E-1,-3.4453034E-1,1.6777593E-3,-2.0795412E-1,8.2357794E-1,1.1106542E-1,2.55659E-1,5.469834E0,6.932014E-1,6.765242E-1,6.7428045E-2,2.9295967E0,-1.5877795E0,3.1316558E-1,9.649298E-1,5.286954E0,8.294218E-1,6.591103E-1,9.190312E-2,2.855818E0,1.42600565E1,3.0294183E-1,4.5322046E0,-1.9932786E0,-2.2556087E-2,-6.5772927E-1,8.986292E-1,3.7725437E0,1.2265111E0,-1.2029222E-1,-6.8774156E-2,-9.556155E-2,-9.1736056E-2,-9.921856E-2,5.603045E-2,-9.6250236E-2,-4.4338144E-2,-1.21319324E-1,-3.747733E-2,-1.0896557E-1,-1.3622675E-2,-1.8640721E-2,5.780298E-1,1.6707454E0,1.1358308E-1,7.6792374E-2,-2.5849992E-1,-1.9731354E-2,6.406402E-2,2.757812E-1,1.1956819E-2,1.0929798E0,2.3949026E-1,1.9732383E-3,1.0755299E0,-1.2672824E-1,-3.332563E-1,-2.400212E-1,-8.104829E-2,-5.7968486E-2,1.191855E0],"categories":[],"categories_nodes":[],"categories_segments":[],"categories_sizes":[],"default_left":[0,0,0,0,0,0,0,0,0,0,0,0,0,0,0,0,0,0,0,0,0,0,0,0,0,0,0,0,0,0,0,0,0,0,0,0,0,0,0,0,0,0,0,0,0,0,0,0,0,0,0,0,0,0,0,0,0,0,0,0,0,0,0,0,0,0,0,0,0,0,0,0,0,0,0,0,0,0,0,0,0,0,0,0,0,0,0,0,0,0,0,0,0,0,0,0,0,0,0,0,0,0,0,0,0,0,0,0,0,0,0,0,0,0,0,0,0,0,0,0,0,0,0,0,0],"id":6,"left_children":[1,3,5,7,9,11,13,15,17,19,21,23,25,27,29,31,33,35,37,39,41,43,45,47,49,51,53,55,57,59,61,63,65,67,69,71,73,75,77,79,81,-1,83,85,87,89,91,93,95,97,99,101,103,105,107,109,111,113,115,117,119,121,123,-1,-1,-1,-1,-1,-1,-1,-1,-1,-1,-1,-1,-1,-1,-1,-1,-1,-1,-1,-1,-1,-1,-1,-1,-1,-1,-1,-1,-1,-1,-1,-1,-1,-1,-1,-1,-1,-1,-1,-1,-1,-1,-1,-1,-1,-1,-1,-1,-1,-1,-1,-1,-1,-1,-1,-1,-1,-1,-1,-1,-1,-1],"loss_changes":[3.496321E4,7.3894297E3,4.446167E3,2.9719297E3,2.5417354E3,1.6923242E2,7.0842584E2,3.184023E3,6.539034E3,2.0593664E4,3.550429E3,2.2885742E1,1.7465527E2,7.391569E2,4.3665582E2,3.192996E3,2.0126035E3,5.345425E3,6.351001E3,5.9504014E3,1.3593789E4,3.082667E3,4.718548E3,8.818359E0,7.234985E1,1.7004205E2,1.7651361E2,5.8091907E2,1.2117515E3,4.197392E2,5.324989E2,2.2808335E3,3.2999553E3,1.547074E3,1.357665E3,2.384108E3,4.161484E3,8.424867E3,3.7931191E3,8.197568E3,2.120606E3,0E0,8.715147E3,6.204755E3,1.4030132E3,1.672347E3,3.1981807E3,1.3063385E1,2.4863281E0,6.5166016E1,7.551721E1,1.9733264E2,1.5548016E2,6.977728E1,3.2327277E2,1.1456322E3,5.0109805E2,7.419166E2,1.0470022E3,3.6977612E2,1.0496066E2,2.1059998E2,2.4281152E2,0E0,0E0,0E0,0E0,0E0,0E0,0E0,0E0,0E0,0E0,0E0,0E0,0E0,0E0,0E0,0E0,0E0,0E0,0E0,0E0,0E0,0E0,0E0,0E0,0E0,0E0,0E0,0E0,0E0,0E0,0E0,0E0,0E0,0E0,0E0,0E0,0E0,0E0,0E0,0E0,0E0,0E0,0E0,0E0,0E0,0E0,0E0,0E0,0E0,0E0,0E0,0E0,0E0,0E0,0E0,0E0,0E0,0E0,0E0,0E0,0E0,0E0],"parents":[2147483647,0,0,1,1,2,2,3,3,4,4,5,5,6,6,7,7,8,8,9,9,10,10,11,11,12,12,13,13,14,14,15,15,16,16,17,17,18,18,19,19,20,20,21,21,22,22,23,23,24,24,25,25,26,26,27,27,28,28,29,29,30,30,31,31,32,32,33,33,34,34,35,35,36,36,37,37,38,38,39,39,40,40,42,42,43,43,44,44,45,45,46,46,47,47,48,48,49,49,50,50,51,51,52,52,53,53,54,54,55,55,56,56,57,57,58,58,59,59,60,60,61,61,62,62],"right_children":[2,4,6,8,10,12,14,16,18,20,22,24,26,28,30,32,34,36,38,40,42,44,46,48,50,52,54,56,58,60,62,64,66,68,70,72,74,76,78,80,82,-1,84,86,88,90,92,94,96,98,100,102,104,106,108,110,112,114,116,118,120,122,124,-1,-1,-1,-1,-1,-1,-1,-1,-1,-1,-1,-1,-1,-1,-1,-1,-1,-1,-1,-1,-1,-1,-1,-1,-1,-1,-1,-1,-1,-1,-1,-1,-1,-1,-1,-1,-1,-1,-1,-1,-1,-1,-1,-1,-1,-1,-1,-1,-1,-1,-1,-1,-1,-1,-1,-1,-1,-1,-1,-1,-1,-1],"split_conditions":[8.61E0,8.95E1,1.562E1,1.776E1,2.202E1,1.379E1,1.116E1,9.8122E0,2.7E0,2.201E1,3.23E0,9.09E0,2.884E1,2.828E1,6.725E1,2.16E0,5.02E0,2.682E1,4.78E0,9.8122E0,3.89E0,1.85E0,1.788E1,1.351E1,9.8122E0,9.8122E0,1.471E1,1.47E0,1.758E1,3.824E1,4.84E0,8.406E1,5.62E0,1.63E1,1.721E1,1.782E1,2.189E1,2.976E1,9.8122E0,2.081E1,2.554E1,1.8471535E1,2.97E0,1.82E0,2.338E1,3.59E0,2.431E1,2.806E1,6.04E0,6.481E1,2.84E1,2.574E1,2.714E1,1.25E1,3.47E0,2.668E1,2.676E1,2.362E1,6.525E1,1.432E1,1.63E1,2.57E0,1.605E1,6.394053E-2,2.9667923E-1,-3.4453034E-1,1.6777593E-3,-2.0795412E-1,8.2357794E-1,1.1106542E-1,2.55659E-1,5.469834E0,6.932014E-1,6.765242E-1,6.7428045E-2,2.9295967E0,-1.5877795E0,3.1316558E-1,9.649298E-1,5.286954E0,8.294218E-1,6.591103E-1,9.190312E-2,2.855818E0,1.42600565E1,3.0294183E-1,4.5322046E0,-1.9932786E0,-2.2556087E-2,-6.5772927E-1,8.986292E-1,3.7725437E0,1.2265111E0,-1.2029222E-1,-6.8774156E-2,-9.556155E-2,-9.1736056E-2,-9.921856E-2,5.603045E-2,-9.6250236E-2,-4.4338144E-2,-1.21319324E-1,-3.747733E-2,-1.0896557E-1,-1.3622675E-2,-1.8640721E-2,5.780298E-1,1.6707454E0,1.1358308E-1,7.6792374E-2,-2.5849992E-1,-1.9731354E-2,6.406402E-2,2.757812E-1,1.1956819E-2,1.0929798E0,2.3949026E-1,1.9732383E-3,1.0755299E0,-1.2672824E-1,-3.332563E-1,-2.400212E-1,-8.104829E-2,-5.7968486E-2,1.191855E0],"split_indices":[1,4,5,5,3,5,1,7,6,3,6,5,3,0,4,6,1,2,1,7,1,6,5,1,7,7,5,6,5,2,6,4,1,5,5,5,3,2,7,3,2,0,6,6,0,6,0,4,5,4,0,3,0,1,6,0,0,3,4,1,5,6,5,0,0,0,0,0,0,0,0,0,0,0,0,0,0,0,0,0,0,0,0,0,0,0,0,0,0,0,0,0,0,0,0,0,0,0,0,0,0,0,0,0,0,0,0,0,0,0,0,0,0,0,0,0,0,0,0,0,0,0,0,0,0],"split_type":[0,0,0,0,0,0,0,0,0,0,0,0,0,0,0,0,0,0,0,0,0,0,0,0,0,0,0,0,0,0,0,0,0,0,0,0,0,0,0,0,0,0,0,0,0,0,0,0,0,0,0,0,0,0,0,0,0,0,0,0,0,0,0,0,0,0,0,0,0,0,0,0,0,0,0,0,0,0,0,0,0,0,0,0,0,0,0,0,0,0,0,0,0,0,0,0,0,0,0,0,0,0,0,0,0,0,0,0,0,0,0,0,0,0,0,0,0,0,0,0,0,0,0,0,0],"sum_hessian":[3.27808E5,1.04914E5,2.22894E5,9.6998E4,7.916E3,1.71609E5,5.1285E4,7.2212E4,2.4786E4,4.943E3,2.973E3,1.51654E5,1.9955E4,4.0488E4,1.0797E4,4.2057E4,3.0155E4,1.7696E4,7.09E3,4.88E3,6.3E1,2.418E3,5.55E2,1.22622E5,2.9032E4,1.9736E4,2.19E2,2.9467E4,1.1021E4,7.692E3,3.105E3,2.0318E4,2.1739E4,8.34E2,2.9321E4,3.9E1,1.7657E4,2.27E2,6.863E3,1.747E3,3.133E3,6E0,5.7E1,1.82E2,2.236E3,2.59E2,2.96E2,3.09E3,1.19532E5,1.8642E4,1.039E4,1.1072E4,8.664E3,1.68E2,5.1E1,3.702E3,2.5765E4,8.789E3,2.232E3,6.762E3,9.3E2,3.046E3,5.9E1,1.5279E4,5.039E3,2.851E3,1.8888E4,1.62E2,6.72E2,2.126E4,8.061E3,2.3E1,1.6E1,1.074E3,1.6583E4,1.81E2,4.6E1,5.934E3,9.29E2,3.7E1,1.71E3,7.94E2,2.339E3,5.1E1,6E0,1.43E2,3.9E1,3.2E1,2.204E3,1.58E2,1.01E2,5.4E1,2.42E2,2.548E3,5.42E2,1.00644E5,1.8888E4,1.8396E4,2.46E2,4.316E3,6.074E3,7.169E3,3.903E3,2.001E3,6.663E3,1.49E2,1.9E1,1.8E1,3.3E1,1.671E3,2.031E3,1.358E4,1.2185E4,1.095E3,7.694E3,1.37E2,2.095E3,6.734E3,2.8E1,5.64E2,3.66E2,1.705E3,1.341E3,2.2E1,3.7E1],"tree_param":{"num_deleted":"0","num_feature":"9","num_nodes":"125","size_leaf_vector":"1"}},{"base_weights":[7.2374224E-4,3.39557E-1,-1.6442654E-1,7.0533276E-1,2.4295571E-1,-1.7026414E-1,2.3042002E0,5.157093E-1,1.412068E0,2.018942E-1,9.8177016E-1,-2.091056E-1,-2.9638113E-2,1.9056729E0,9.371493E0,6.154889E-1,-7.720332E-1,9.0651166E-1,3.0561256E0,3.357913E-1,-2.974805E-5,6.391567E-1,4.4223995E0,-2.1879621E-1,-1.470524E-1,-1.4637186E-1,3.2928148E-1,5.1937346E0,8.018759E-1,4.9315858E-1,2.4721339E0,-1.4862938E0,1.7205371E0,6.958867E-1,6.3156953E0,1.9600334E0,8.005969E0,-3.760473E-1,3.6687768E-1,-2.7413908E-1,1.3112915E-1,-8.7643003E-1,8.415634E-1,2.7416804E0,1.5068038E1,-8.343558E-1,-2.1739116E-1,-1.2734643E-1,-5.016398E-1,-1.9462793E-1,4.3602037E-1,-7.392215E-1,5.2532256E-1,3.073797E0,6.330103E0,-8.424534E-2,4.8741174E0,7.3067826E-1,1.2198838E-1,2.5850039E0,4.388422E-1,7.923774E-1,-6.5759337E-1,5.945809E0,2.5475827E-1,1.08957E0,8.557484E-2,4.3290954E0,2.8806314E-1,9.9956983E-1,-6.402683E-2,2.20199E0,9.8335495E0,4.844004E-1,-1.7273378E-1,1.9164349E-1,8.154301E-2,-9.453685E-2,7.9936886E-1,-2.6566213E-2,1.5511928E-1,-5.0311714E-1,4.6182796E-1,4.485845E0,1.9868995E-1,5.880628E0,4.1657242E-1,1.693713E0,1.1304632E1,5.640314E-1,-2.7422518E-1,4.8314717E-1,-6.531652E-2,-3.7468737E-1,-3.6592294E-2,-2.7366424E-1,-7.760754E-2,-1.4543323E-1,-2.7245848E-2,1.1369829E-1,4.0219154E0,-6.097091E-2,-2.992195E-1,1.3622051E-1,1.1903511E0,4.4850554E0,5.773155E-1,3.9548612E-1,-5.236719E-1,1.7384472E0,-1.2325616E0],"categories":[],"categories_nodes":[],"categories_segments":[],"categories_sizes":[],"default_left":[0,0,0,0,0,0,0,0,0,0,0,0,0,0,0,0,0,0,0,0,0,0,0,0,0,0,0,0,0,0,0,0,0,0,0,0,0,0,0,0,0,0,0,0,0,0,0,0,0,0,0,0,0,0,0,0,0,0,0,0,0,0,0,0,0,0,0,0,0,0,0,0,0,0,0,0,0,0,0,0,0,0,0,0,0,0,0,0,0,0,0,0,0,0,0,0,0,0,0,0,0,0,0,0,0,0,0,0,0,0,0],"id":7,"left_children":[1,3,5,7,9,11,13,15,17,19,21,23,25,27,-1,29,31,33,35,37,39,41,43,45,47,49,51,53,55,57,59,61,63,65,67,69,71,73,75,77,79,81,83,85,87,89,91,93,95,97,99,101,103,105,-1,107,109,-1,-1,-1,-1,-1,-1,-1,-1,-1,-1,-1,-1,-1,-1,-1,-1,-1,-1,-1,-1,-1,-1,-1,-1,-1,-1,-1,-1,-1,-1,-1,-1,-1,-1,-1,-1,-1,-1,-1,-1,-1,-1,-1,-1,-1,-1,-1,-1,-1,-1,-1,-1,-1,-1],"loss_changes":[1.8343723E4,3.7954502E3,3.1764062E3,3.0068047E3,2.5777964E3,1.2009556E3,5.9366055E3,2.2742422E3,3.9427637E3,2.1766428E3,5.2711514E3,1.0356836E2,1.9938496E3,1.8613228E3,0E0,3.7290654E3,2.2689358E3,4.1335757E3,6.0391514E3,1.0713125E3,1.1540912E3,1.2492708E3,7.205081E3,1.2869775E2,1.6256287E2,1.0092698E3,2.4467942E3,4.2851533E3,1.3932915E3,2.5891252E3,6.2822764E3,2.8894094E3,4.4619297E3,4.2150747E3,5.896395E3,2.7289585E3,3.09212E3,8.0648645E2,1.1988999E3,1.2520797E3,1.8408644E3,9.3099774E2,9.074012E3,7.980466E3,1.1506503E4,7.508447E1,9.0180176E1,1.3270844E2,1.21955536E2,9.987942E2,2.0274741E3,2.5040155E2,2.4190012E3,1.5410793E3,0E0,7.432621E2,5.944647E2,0E0,0E0,0E0,0E0,0E0,0E0,0E0,0E0,0E0,0E0,0E0,0E0,0E0,0E0,0E0,0E0,0E0,0E0,0E0,0E0,0E0,0E0,0E0,0E0,0E0,0E0,0E0,0E0,0E0,0E0,0E0,0E0,0E0,0E0,0E0,0E0,0E0,0E0,0E0,0E0,0E0,0E0,0E0,0E0,0E0,0E0,0E0,0E0,0E0,0E0,0E0,0E0,0E0,0E0],"parents":[2147483647,0,0,1,1,2,2,3,3,4,4,5,5,6,6,7,7,8,8,9,9,10,10,11,11,12,12,13,13,15,15,16,16,17,17,18,18,19,19,20,20,21,21,22,22,23,23,24,24,25,25,26,26,27,27,28,28,29,29,30,30,31,31,32,32,33,33,34,34,35,35,36,36,37,37,38,38,39,39,40,40,41,41,42,42,43,43,44,44,45,45,46,46,47,47,48,48,49,49,50,50,51,51,52,52,53,53,55,55,56,56],"right_children":[2,4,6,8,10,12,14,16,18,20,22,24,26,28,-1,30,32,34,36,38,40,42,44,46,48,50,52,54,56,58,60,62,64,66,68,70,72,74,76,78,80,82,84,86,88,90,92,94,96,98,100,102,104,106,-1,108,110,-1,-1,-1,-1,-1,-1,-1,-1,-1,-1,-1,-1,-1,-1,-1,-1,-1,-1,-1,-1,-1,-1,-1,-1,-1,-1,-1,-1,-1,-1,-1,-1,-1,-1,-1,-1,-1,-1,-1,-1,-1,-1,-1,-1,-1,-1,-1,-1,-1,-1,-1,-1,-1,-1],"split_conditions":[3.128E1,5.88E0,1.88E1,3.14E0,2.687E1,1.581E1,2.68E1,2.97E0,1.776E1,2.976E1,8.062E1,1.379E1,9.8122E0,2.36E0,9.371493E0,2.86E0,2.489E1,2.963E1,9.8122E0,7.788E1,2.58E1,1.685E1,7.67E0,8.66E0,5.3E0,1.40717E1,1.91E0,2.27E0,4.09E0,3.89E0,2.88E0,2.303E1,2.259E1,2.088E1,3.015E1,3.52E0,5.34E0,1.16E0,1.76E0,8.55E1,2.23E0,7.82E0,7.219E1,1.4E0,2.73E0,4.78E0,8.8E0,6.16E0,1.025E1,8.7E0,1.862E1,2.206E1,1.801E1,2.73E1,6.330103E0,7.59E0,5.56E0,7.3067826E-1,1.2198838E-1,2.5850039E0,4.388422E-1,7.923774E-1,-6.5759337E-1,5.945809E0,2.5475827E-1,1.08957E0,8.557484E-2,4.3290954E0,2.8806314E-1,9.9956983E-1,-6.402683E-2,2.20199E0,9.8335495E0,4.844004E-1,-1.7273378E-1,1.9164349E-1,8.154301E-2,-9.453685E-2,7.9936886E-1,-2.6566213E-2,1.5511928E-1,-5.0311714E-1,4.6182796E-1,4.485845E0,1.9868995E-1,5.880628E0,4.1657242E-1,1.693713E0,1.1304632E1,5.640314E-1,-2.7422518E-1,4.8314717E-1,-6.531652E-2,-3.7468737E-1,-3.6592294E-2,-2.7366424E-1,-7.760754E-2,-1.4543323E-1,-2.7245848E-2,1.1369829E-1,4.0219154E0,-6.097091E-2,-2.992195E-1,1.3622051E-1,1.1903511E0,4.4850554E0,5.773155E-1,3.9548612E-1,-5.236719E-1,1.7384472E0,-1.2325616E0],"split_indices":[2,1,5,6,0,5,3,6,5,2,4,5,7,6,0,6,0,2,7,4,0,5,1,1,6,8,6,6,6,1,6,0,3,3,2,6,6,6,6,4,6,1,4,6,6,1,1,1,1,1,5,3,5,0,0,1,6,0,0,0,0,0,0,0,0,0,0,0,0,0,0,0,0,0,0,0,0,0,0,0,0,0,0,0,0,0,0,0,0,0,0,0,0,0,0,0,0,0,0,0,0,0,0,0,0,0,0,0,0,0,0],"split_type":[0,0,0,0,0,0,0,0,0,0,0,0,0,0,0,0,0,0,0,0,0,0,0,0,0,0,0,0,0,0,0,0,0,0,0,0,0,0,0,0,0,0,0,0,0,0,0,0,0,0,0,0,0,0,0,0,0,0,0,0,0,0,0,0,0,0,0,0,0,0,0,0,0,0,0,0,0,0,0,0,0,0,0,0,0,0,0,0,0,0,0,0,0,0,0,0,0,0,0,0,0,0,0,0,0,0,0,0,0,0,0],"sum_hessian":[3.27808E5,1.07419E5,2.20389E5,2.2441E4,8.4978E4,2.1987E5,5.19E2,1.7695E4,4.746E3,8.0505E4,4.473E3,1.72284E5,4.7586E4,5.13E2,6E0,1.6423E4,1.272E3,3.631E3,1.115E3,4.8406E4,3.2099E4,4.069E3,4.04E2,1.49011E5,2.3273E4,3.5908E4,1.1678E4,1.28E2,3.85E2,1.5409E4,1.014E3,9.89E2,2.83E2,3.496E3,1.35E2,9.14E2,2.01E2,2.025E3,4.6381E4,1.0388E4,2.1711E4,4.79E2,3.59E3,3.5E2,5.4E1,3.38E2,1.48673E5,2.2049E4,1.224E3,3.3161E4,2.747E3,1.81E3,9.868E3,1.14E2,1.4E1,3.17E2,6.8E1,6.56E2,1.4753E4,1.42E2,8.72E2,1.44E2,8.45E2,1.2E1,2.71E2,4.28E2,3.068E3,5.3E1,8.2E1,5.6E2,3.54E2,1.97E2,4E0,1.84E2,1.841E3,1.2013E4,3.4368E4,1.0246E4,1.42E2,1.3836E4,7.875E3,3.6E2,1.19E2,4.4E1,3.546E3,2.5E1,3.25E2,3.9E1,1.5E1,9E0,3.29E2,2.6E1,1.48647E5,1.04E2,2.1945E4,4.54E2,7.7E2,8.737E3,2.4424E4,2.736E3,1.1E1,5.89E2,1.221E3,9.669E3,1.99E2,9E0,1.05E2,1.72E2,1.45E2,6.2E1,6E0],"tree_param":{"num_deleted":"0","num_feature":"9","num_nodes":"111","size_leaf_vector":"1"}},{"base_weights":[7.517188E-4,-1.3064848E-1,2.194466E-1,-1.3346153E-1,1.7494631E0,4.905101E-1,1.15150675E-1,5.1637244E-1,-1.3711713E-1,-2.255528E-1,1.0970381E1,6.849025E-1,1.892516E-1,1.1709858E1,1.1295923E-1,-4.1374898E-1,1.5466058E0,-1.3582005E-1,-1.5087059E0,6.1082077E0,-3.298515E0,2.8636587E0,1.3906078E1,6.2567526E-1,4.6191764E0,-4.0927836E-1,4.7212926E-1,1.3804733E0,8.969879E-2,-7.0637834E-1,1.1554033E0,2.1995716E0,-2.779282E-1,1.4081169E0,-1.3747045E-1,-2.3790822E0,5.6919327E0,1.4108907E1,3.6755693E0,-1.0729756E0,-7.6159806E0,1.04852705E1,-3.1092603E0,5.973502E-1,5.30666E0,1.3533821E1,3.6652887E0,7.583338E-1,-6.7199093E-1,4.2631972E-1,7.737112E0,2.0437233E1,1.2357805E0,4.862893E-2,3.9138517E-1,4.2683825E-2,-2.807615E-1,-5.1553633E-2,2.0527878E0,1.3880571E0,2.6674563E-1,1.2125014E-1,-8.650088E-1,1.1930724E-1,4.809267E0,-8.0087954E-1,-4.0806435E-2,-1.0491297E0,9.088303E-1,7.6464167E0,-6.262076E-1,-4.867437E-2,5.0384665E0,-1.4426488E-1,3.2388637E0,-1.171231E-2,-2.5366302E0,1.5984906E-1,-2.9260023E0,-1.9920392E0,3.8270967E0,-2.165332E0,-2.709868E-2,4.2585886E-1,1.480426E-1,3.064461E-1,3.9765964E0,6.759255E-1,3.1714106E0,-1.0578505E-1,1.5634199E0,-9.6352965E-2,-4.3933275E-1,3.6701906E-1,3.8178068E-2,7.9323583E0,1.1037717E0,6.768942E0,-4.4216046E-1,1.3680661E0,1.7023528E-1,-1.295091E-1,2.2262547E-2,-5.0013937E-2,2.5755203E-1],"categories":[],"categories_nodes":[],"categories_segments":[],"categories_sizes":[],"default_left":[0,0,0,0,0,0,0,0,0,0,0,0,0,0,0,0,0,0,0,0,0,0,0,0,0,0,0,0,0,0,0,0,0,0,0,0,0,0,0,0,0,0,0,0,0,0,0,0,0,0,0,0,0,0,0,0,0,0,0,0,0,0,0,0,0,0,0,0,0,0,0,0,0,0,0,0,0,0,0,0,0,0,0,0,0,0,0,0,0,0,0,0,0,0,0,0,0,0,0,0,0,0,0,0,0],"id":8,"left_children":[1,3,5,7,9,11,13,15,17,19,21,23,25,-1,27,29,31,33,35,37,39,41,-1,43,45,47,49,51,53,55,57,59,61,63,65,67,69,71,73,75,77,79,81,83,85,-1,87,89,91,93,95,97,99,101,103,-1,-1,-1,-1,-1,-1,-1,-1,-1,-1,-1,-1,-1,-1,-1,-1,-1,-1,-1,-1,-1,-1,-1,-1,-1,-1,-1,-1,-1,-1,-1,-1,-1,-1,-1,-1,-1,-1,-1,-1,-1,-1,-1,-1,-1,-1,-1,-1,-1,-1],"loss_changes":[9.420128E3,1.0832554E3,3.478273E3,4.8579248E2,5.5751807E3,2.0018828E3,7.5733535E3,1.0968688E3,3.6152393E2,4.94439E3,1.5356719E4,4.8387217E3,2.2704812E3,0E0,2.6193457E3,2.7724255E2,6.475189E2,5.178064E2,1.2168563E3,1.5635547E3,1.6349141E3,2.0811484E3,0E0,2.7110645E3,1.1731553E4,1.3207461E3,3.027227E3,4.389303E3,1.0809902E3,9.9071915E1,7.1826984E2,1.2681906E3,2.5707562E2,3.19985E3,7.441609E2,1.050646E3,3.2871985E3,7.310342E2,1.9289714E3,8.6982947E2,1.0153799E3,8.627898E2,3.2183435E2,1.7371802E3,4.17601E3,0E0,2.921525E3,3.915022E3,9.764337E2,2.1571243E3,4.2289473E3,5.9222656E2,3.5301084E3,9.435635E2,2.7254985E3,0E0,0E0,0E0,0E0,0E0,0E0,0E0,0E0,0E0,0E0,0E0,0E0,0E0,0E0,0E0,0E0,0E0,0E0,0E0,0E0,0E0,0E0,0E0,0E0,0E0,0E0,0E0,0E0,0E0,0E0,0E0,0E0,0E0,0E0,0E0,0E0,0E0,0E0,0E0,0E0,0E0,0E0,0E0,0E0,0E0,0E0,0E0,0E0,0E0,0E0],"parents":[2147483647,0,0,1,1,2,2,3,3,4,4,5,5,6,6,7,7,8,8,9,9,10,10,11,11,12,12,14,14,15,15,16,16,17,17,18,18,19,19,20,20,21,21,23,23,24,24,25,25,26,26,27,27,28,28,29,29,30,30,31,31,32,32,33,33,34,34,35,35,36,36,37,37,38,38,39,39,40,40,41,41,42,42,43,43,44,44,46,46,47,47,48,48,49,49,50,50,51,51,52,52,53,53,54,54],"right_children":[2,4,6,8,10,12,14,16,18,20,22,24,26,-1,28,30,32,34,36,38,40,42,-1,44,46,48,50,52,54,56,58,60,62,64,66,68,70,72,74,76,78,80,82,84,86,-1,88,90,92,94,96,98,100,102,104,-1,-1,-1,-1,-1,-1,-1,-1,-1,-1,-1,-1,-1,-1,-1,-1,-1,-1,-1,-1,-1,-1,-1,-1,-1,-1,-1,-1,-1,-1,-1,-1,-1,-1,-1,-1,-1,-1,-1,-1,-1,-1,-1,-1,-1,-1,-1,-1,-1,-1],"split_conditions":[1.654E1,9.062E1,2.869E1,1.16E0,3.91E0,2.202E1,3.89E0,7.156E1,8.988E1,2.022E1,2.287E1,2.201E1,1.746E1,1.1709858E1,5.55E0,1.636E1,7.919E1,4.45E0,2.112E1,1.575E1,2.267E1,2.236E1,1.3906078E1,2.532E1,3.89E0,1.691E1,4.34E0,9.6E-1,3.48E0,2.187E1,1.11E0,2.151E1,2.489E1,8.95E1,2.554E1,3.87E0,1.636E1,2.83E0,1.624E1,3.66E0,2.53E0,2.177E1,4.21E0,1.63E0,8.425E1,1.3533821E1,8.988E1,8.531E1,2.8E0,1.344E1,4.39E0,2.679E1,2.369E1,2.497E1,1.721E1,4.2683825E-2,-2.807615E-1,-5.1553633E-2,2.0527878E0,1.3880571E0,2.6674563E-1,1.2125014E-1,-8.650088E-1,1.1930724E-1,4.809267E0,-8.0087954E-1,-4.0806435E-2,-1.0491297E0,9.088303E-1,7.6464167E0,-6.262076E-1,-4.867437E-2,5.0384665E0,-1.4426488E-1,3.2388637E0,-1.171231E-2,-2.5366302E0,1.5984906E-1,-2.9260023E0,-1.9920392E0,3.8270967E0,-2.165332E0,-2.709868E-2,4.2585886E-1,1.480426E-1,3.064461E-1,3.9765964E0,6.759255E-1,3.1714106E0,-1.0578505E-1,1.5634199E0,-9.6352965E-2,-4.3933275E-1,3.6701906E-1,3.8178068E-2,7.9323583E0,1.1037717E0,6.768942E0,-4.4216046E-1,1.3680661E0,1.7023528E-1,-1.295091E-1,2.2262547E-2,-5.0013937E-2,2.5755203E-1],"split_indices":[5,4,2,6,6,3,1,4,4,3,0,3,5,0,1,5,4,1,3,5,0,0,0,0,1,5,6,6,6,3,6,3,0,4,2,6,5,6,5,6,6,0,1,6,4,0,4,4,6,8,6,0,3,0,5,0,0,0,0,0,0,0,0,0,0,0,0,0,0,0,0,0,0,0,0,0,0,0,0,0,0,0,0,0,0,0,0,0,0,0,0,0,0,0,0,0,0,0,0,0,0,0,0,0,0],"split_type":[0,0,0,0,0,0,0,0,0,0,0,0,0,0,0,0,0,0,0,0,0,0,0,0,0,0,0,0,0,0,0,0,0,0,0,0,0,0,0,0,0,0,0,0,0,0,0,0,0,0,0,0,0,0,0,0,0,0,0,0,0,0,0,0,0,0,0,0,0,0,0,0,0,0,0,0,0,0,0,0,0,0,0,0,0,0,0,0,0,0,0,0,0,0,0,0,0,0,0,0,0,0,0,0,0],"sum_hessian":[3.27808E5,2.04773E5,1.23035E5,2.04468E5,3.05E2,3.4185E4,8.885E4,1.143E3,2.03325E5,2.52E2,5.3E1,2.0777E4,1.3408E4,4E0,8.8846E4,6.01E2,5.42E2,2.03134E5,1.91E2,8.2E1,1.7E2,4.4E1,9E0,2.047E4,3.07E2,4.303E3,9.105E3,1.6E3,8.7246E4,5.07E2,9.4E1,3.99E2,1.43E2,2.16E2,2.02918E5,1.71E2,2E1,1.8E1,6.4E1,1.13E2,5.7E1,1.9E1,2.5E1,2.0348E4,1.22E2,6E0,3.01E2,7.9E2,3.513E3,9.049E3,5.6E1,1.1E1,1.589E3,7.6793E4,1.0453E4,1.08E2,3.99E2,7.7E1,1.7E1,1.39E2,2.6E2,1.14E2,2.9E1,2.03E2,1.3E1,1.15E2,2.02803E5,1.42E2,2.9E1,5E0,1.5E1,3E0,1.5E1,4.1E1,2.3E1,1E2,1.3E1,1.2E1,4.5E1,2E0,1.7E1,1E1,1.5E1,2.281E3,1.8067E4,8E1,4.2E1,2.51E2,5E1,6.33E2,1.57E2,2.436E3,1.077E3,2.468E3,6.581E3,9E0,4.7E1,1E1,1E0,2.65E2,1.324E3,3.882E3,7.2911E4,4.763E3,5.69E3],"tree_param":{"num_deleted":"0","num_feature":"9","num_nodes":"105","size_leaf_vector":"1"}},{"base_weights":[7.770575E-4,1.810656E-1,-8.5554704E-2,1.543288E-1,7.814726E-1,-9.017929E-2,1.0278138E0,1.5143578E-1,6.9849E0,6.9845164E-1,1.1114324E1,7.799126E-1,-9.382423E-2,2.4375832E0,-2.4954583E-1,1.1281165E-1,6.079887E-1,-3.9095752E0,1.085205E1,2.577886E1,6.6474354E-1,5.590907E0,4.8539968E0,3.2329252E-1,8.562974E0,-1.5370873E0,-9.150251E-2,2.0974243E0,6.895454E0,8.89419E-1,-1.832712E0,1.3575618E-1,-5.5972993E-1,2.0830755E-1,1.3355649E0,-1.367798E0,-2.1583512E0,2.6998992E0,1.4434851E1,9.522456E-1,8.899492E0,2.953798E-1,1.673334E0,8.681403E0,-1.2138116E0,-8.5691345E-1,1.4813055E0,6.1421456E0,2.533051E0,1.1407744E-1,-2.2271886E0,-1.2297346E-1,-3.389908E-2,7.7154818E0,1.020785E0,-3.5899153E0,2.3642492E0,4.674654E0,-2.3050423E0,1.7472656E-2,9.3826525E-2,-3.77323E-1,5.1692516E-1,4.4556707E-2,2.227791E0,1.140304E0,2.0434104E-1,2.241264E-1,-5.3299546E-1,-1.695478E-1,1.6544925E0,2.4613457E0,4.735409E0,-6.559538E-2,4.4652697E-1,3.6467972E-1,2.6843212E0,1.419331E0,3.4174511E0,2.508331E-1,-1.6777078E0,-1.2361918E-1,-6.8215203E-1,6.432426E0,1.7373514E-1,3.0047963E0,-2.5822887E-1,1.5416864E0,-1.4068538E-1,-1.3304762E0,-5.312067E-1,-1.7463796E-1,-3.2979384E-2,1.7365648E-1,-1.987276E-2,2.6486692E0,3.126357E-1,1.6947314E-1,3.9647422E0,-1.3020014E0,-2.9883215E-1,-5.7158846E-1,9.1537654E-1,3.2983065E-2,2.1595166E0,-1.0402086E0,-1.0304978E-2],"categories":[],"categories_nodes":[],"categories_segments":[],"categories_sizes":[],"default_left":[0,0,0,0,0,0,0,0,0,0,0,0,0,0,0,0,0,0,0,0,0,0,0,0,0,0,0,0,0,0,0,0,0,0,0,0,0,0,0,0,0,0,0,0,0,0,0,0,0,0,0,0,0,0,0,0,0,0,0,0,0,0,0,0,0,0,0,0,0,0,0,0,0,0,0,0,0,0,0,0,0,0,0,0,0,0,0,0,0,0,0,0,0,0,0,0,0,0,0,0,0,0,0,0,0,0,0],"id":9,"left_children":[1,3,5,7,9,11,13,15,17,19,21,23,25,27,29,31,33,35,37,39,41,-1,43,45,47,49,51,53,-1,55,57,59,61,63,65,67,-1,69,71,-1,-1,73,75,77,79,81,83,-1,85,87,89,91,93,95,97,99,101,103,105,-1,-1,-1,-1,-1,-1,-1,-1,-1,-1,-1,-1,-1,-1,-1,-1,-1,-1,-1,-1,-1,-1,-1,-1,-1,-1,-1,-1,-1,-1,-1,-1,-1,-1,-1,-1,-1,-1,-1,-1,-1,-1,-1,-1,-1,-1,-1,-1],"loss_changes":[5.1022407E3,1.7038228E3,1.141417E3,2.0070647E3,3.8739775E3,7.001648E2,1.651926E3,1.7911719E3,1.8540413E3,3.7787698E3,1.604793E3,3.270375E3,7.364761E2,2.9991423E3,8.7075836E2,1.4453116E3,2.3037178E3,9.035405E1,8.956682E2,4.3290527E2,1.6703331E3,0E0,4.9824094E2,1.1916595E3,3.6110342E3,4.0248737E2,3.9787134E2,2.5930312E3,0E0,1.8648457E3,6.316477E2,1.2425652E3,4.9258794E3,2.2060676E3,4.529616E3,8.244741E0,0E0,1.04222084E2,5.5515137E1,0E0,0E0,2.0142758E3,3.9914805E3,8.527985E1,8.545695E1,2.7136084E2,7.9110073E3,0E0,8.974707E2,3.100229E2,2.4309631E2,8.498811E2,1.5368699E3,5.0348535E2,2.005037E3,1.3186798E2,6.276522E2,1.6049023E2,4.9870288E2,0E0,0E0,0E0,0E0,0E0,0E0,0E0,0E0,0E0,0E0,0E0,0E0,0E0,0E0,0E0,0E0,0E0,0E0,0E0,0E0,0E0,0E0,0E0,0E0,0E0,0E0,0E0,0E0,0E0,0E0,0E0,0E0,0E0,0E0,0E0,0E0,0E0,0E0,0E0,0E0,0E0,0E0,0E0,0E0,0E0,0E0,0E0,0E0],"parents":[2147483647,0,0,1,1,2,2,3,3,4,4,5,5,6,6,7,7,8,8,9,9,10,10,11,11,12,12,13,13,14,14,15,15,16,16,17,17,18,18,19,19,20,20,22,22,23,23,24,24,25,25,26,26,27,27,29,29,30,30,31,31,32,32,33,33,34,34,35,35,37,37,38,38,41,41,42,42,43,43,44,44,45,45,46,46,48,48,49,49,50,50,51,51,52,52,53,53,54,54,55,55,56,56,57,57,58,58],"right_children":[2,4,6,8,10,12,14,16,18,20,22,24,26,28,30,32,34,36,38,40,42,-1,44,46,48,50,52,54,-1,56,58,60,62,64,66,68,-1,70,72,-1,-1,74,76,78,80,82,84,-1,86,88,90,92,94,96,98,100,102,104,106,-1,-1,-1,-1,-1,-1,-1,-1,-1,-1,-1,-1,-1,-1,-1,-1,-1,-1,-1,-1,-1,-1,-1,-1,-1,-1,-1,-1,-1,-1,-1,-1,-1,-1,-1,-1,-1,-1,-1,-1,-1,-1,-1,-1,-1,-1,-1,-1],"split_conditions":[3.123E1,2.69E1,1.862E1,2.479E1,8.35E1,6.45E0,7.59E0,8.95E1,7.975E1,2.89E1,2.409E1,4.84E0,6.67E0,2.988E1,3.02E0,1.837E1,5.13E0,2.682E1,2.21E0,2.699E1,2.77E0,5.590907E0,2.705E1,6.806E1,2.574E1,1.344E1,9.8122E0,2.417E1,6.895454E0,2.765E1,2.38E1,1.752E1,2.83E0,2.809E1,5.32E0,2.494E1,-2.1583512E0,2.643E1,2.645E1,9.522456E-1,8.899492E0,7.59E0,8.162E1,2.699E1,2.714E1,1.666E1,6.844E1,6.1421456E0,2.833E1,3.134E1,2.769E1,7.91E0,9.05E0,3.57E0,1.40717E1,9.23E0,1.6E0,2.708E1,4.09E0,1.7472656E-2,9.3826525E-2,-3.77323E-1,5.1692516E-1,4.4556707E-2,2.227791E0,1.140304E0,2.0434104E-1,2.241264E-1,-5.3299546E-1,-1.695478E-1,1.6544925E0,2.4613457E0,4.735409E0,-6.559538E-2,4.4652697E-1,3.6467972E-1,2.6843212E0,1.419331E0,3.4174511E0,2.508331E-1,-1.6777078E0,-1.2361918E-1,-6.8215203E-1,6.432426E0,1.7373514E-1,3.0047963E0,-2.5822887E-1,1.5416864E0,-1.4068538E-1,-1.3304762E0,-5.312067E-1,-1.7463796E-1,-3.2979384E-2,1.7365648E-1,-1.987276E-2,2.6486692E0,3.126357E-1,1.6947314E-1,3.9647422E0,-1.3020014E0,-2.9883215E-1,-5.7158846E-1,9.1537654E-1,3.2983065E-2,2.1595166E0,-1.0402086E0,-1.0304978E-2],"split_indices":[2,0,5,3,4,1,1,4,4,2,3,6,1,0,6,5,1,0,6,0,6,0,0,4,3,8,7,3,0,0,3,5,6,2,1,3,0,0,0,0,0,1,4,0,0,5,4,0,0,2,0,1,1,6,8,1,6,0,6,0,0,0,0,0,0,0,0,0,0,0,0,0,0,0,0,0,0,0,0,0,0,0,0,0,0,0,0,0,0,0,0,0,0,0,0,0,0,0,0,0,0,0,0,0,0,0,0],"split_type":[0,0,0,0,0,0,0,0,0,0,0,0,0,0,0,0,0,0,0,0,0,0,0,0,0,0,0,0,0,0,0,0,0,0,0,0,0,0,0,0,0,0,0,0,0,0,0,0,0,0,0,0,0,0,0,0,0,0,0,0,0,0,0,0,0,0,0,0,0,0,0,0,0,0,0,0,0,0,0,0,0,0,0,0,0,0,0,0,0,0,0,0,0,0,0,0,0,0,0,0,0,0,0,0,0,0,0],"sum_hessian":[3.27808E5,1.06144E5,2.21664E5,1.0162E5,4.524E3,2.20748E5,9.16E2,1.01578E5,4.2E1,4.489E3,3.5E1,9.2E2,2.19828E5,4.35E2,4.81E2,9.3656E4,7.922E3,1.1E1,3.1E1,5E0,4.484E3,1.5E1,2E1,8.7E2,5E1,3.52E2,2.19476E5,4.29E2,6E0,2.8E2,2.01E2,9.0567E4,3.089E3,5.114E3,2.808E3,7E0,4E0,1E1,2.1E1,1E0,4E0,3.283E3,1.201E3,1.2E1,8E0,4.31E2,4.39E2,1.6E1,3.4E1,1.04E2,2.48E2,1.41932E5,7.7544E4,6.8E1,3.61E2,6.9E1,2.11E2,1.3E1,1.88E2,6.2985E4,2.7582E4,2.366E3,7.23E2,5.073E3,4.1E1,5.88E2,2.22E3,1E0,6E0,5E0,5E0,5E0,1.6E1,2.295E3,9.88E2,1.131E3,7E1,6E0,6E0,6E0,2E0,3.29E2,1.02E2,1.8E1,4.21E2,1E1,2.4E1,1E1,9.4E1,4.1E1,2.07E2,3.919E3,1.38013E5,3.887E3,7.3657E4,5.8E1,1E1,3.49E2,1.2E1,5.3E1,1.6E1,2.9E1,1.82E2,5E0,8E0,1.24E2,6.4E1],"tree_param":{"num_deleted":"0","num_feature":"9","num_nodes":"107","size_leaf_vector":"1"}},{"base_weights":[7.2825514E-4,1.8513137E-1,-4.9309555E-2,1.6391003E-1,1.9461535E0,-2.7047334E0,-4.8021425E-2,1.8362625E-1,-7.418624E-1,1.2526373E0,6.6399865E0,-1.2604035E-1,-3.8726752E0,3.7624364E0,-4.96779E-2,1.5965813E-1,7.7180266E-1,-1.2711669E0,3.5240224E-1,-1.8281251E0,2.575691E0,4.7183857E0,1.0025213E1,-6.279956E-1,1.1380595E0,-3.5255013E0,-1.665299E0,-1.4931607E-1,9.378197E0,-4.4929318E-2,-7.155615E-1,-3.662566E-1,1.9680019E-1,9.463282E0,6.518084E-1,-1.5616539E0,1.2003953E0,-5.41108E-1,4.136278E0,-2.0981703E0,2.612448E0,1.6215436E0,1.05852375E1,3.0527702E1,2.7669792E0,-2.4700135E-2,2.0534205E0,4.7968128E-1,-3.9200106E0,2.9308634E0,-4.8210955E0,1.9295063E1,4.436597E0,-4.8711255E-2,2.018417E0,-9.921998E-1,3.11821E0,-1.20310105E-1,8.853284E0,5.0428778E-2,2.9239002E-1,9.926445E0,-2.6874837E-1,2.4531077E-1,-1.2358199E0,-5.745791E-1,-1.5099742E-1,5.020836E0,2.2087327E-1,-2.3553956E-1,7.240047E-1,2.749955E-1,2.6692307E0,-2.9381776E-1,-1.0377133E0,-2.823357E-1,1.7378424E0,4.897278E0,3.7658545E-1,3.8268325E0,1.2271693E0,2.1776073E1,-2.4400875E-1,4.594319E-1,7.4101224E0,6.011645E-2,-2.3002833E-1,1.0980752E0,4.4417843E-1,-1.4253356E0,-6.49116E-1,-9.1209924E-1,1.8418931E0,-2.0864098E0,-7.029385E-1,6.6492653E0,1.2911434E-1,-1.7283674E0,1.9615384E0,-1.6130188E-2,1.554634E-1,3.285414E-1,1.6895922E0,-9.4905096E-1,-1.355491E-1,4.563666E0,3.5027698E-1],"categories":[],"categories_nodes":[],"categories_segments":[],"categories_sizes":[],"default_left":[0,0,0,0,0,0,0,0,0,0,0,0,0,0,0,0,0,0,0,0,0,0,0,0,0,0,0,0,0,0,0,0,0,0,0,0,0,0,0,0,0,0,0,0,0,0,0,0,0,0,0,0,0,0,0,0,0,0,0,0,0,0,0,0,0,0,0,0,0,0,0,0,0,0,0,0,0,0,0,0,0,0,0,0,0,0,0,0,0,0,0,0,0,0,0,0,0,0,0,0,0,0,0,0,0,0,0],"id":10,"left_children":[1,3,5,7,9,11,13,15,17,19,21,23,25,27,29,31,33,35,37,39,41,43,-1,-1,45,47,-1,49,51,53,55,57,59,61,63,65,67,69,71,73,75,77,79,81,83,85,87,-1,89,91,93,95,97,99,101,103,105,-1,-1,-1,-1,-1,-1,-1,-1,-1,-1,-1,-1,-1,-1,-1,-1,-1,-1,-1,-1,-1,-1,-1,-1,-1,-1,-1,-1,-1,-1,-1,-1,-1,-1,-1,-1,-1,-1,-1,-1,-1,-1,-1,-1,-1,-1,-1,-1,-1,-1],"loss_changes":[3.0247449E3,2.6143987E3,8.818347E2,1.2347593E3,2.7033054E3,3.759823E2,1.6268984E3,9.537407E2,8.5360846E2,2.9679707E3,5.3480576E3,1.0185577E2,3.053955E1,2.4617563E3,8.145286E2,1.2700266E3,2.7565474E3,7.148053E2,1.6284664E3,2.680963E2,3.872759E3,5.002342E3,0E0,0E0,2.665934E1,1.5586902E2,0E0,9.7825464E2,2.1686343E3,1.9961119E3,1.9375701E3,4.468284E3,1.3556738E3,8.840016E3,2.0723901E3,3.3173145E2,7.44825E2,2.8306833E2,1.4021254E3,3.1177277E2,1.523728E2,2.4350674E3,7.091719E2,9.286301E3,2.5366367E3,2.1580007E0,7.466728E0,0E0,9.043689E1,8.042366E2,1.2645325E2,8.023457E2,7.235716E2,7.318692E2,1.5552303E3,1.9955376E3,2.8839087E3,0E0,0E0,0E0,0E0,0E0,0E0,0E0,0E0,0E0,0E0,0E0,0E0,0E0,0E0,0E0,0E0,0E0,0E0,0E0,0E0,0E0,0E0,0E0,0E0,0E0,0E0,0E0,0E0,0E0,0E0,0E0,0E0,0E0,0E0,0E0,0E0,0E0,0E0,0E0,0E0,0E0,0E0,0E0,0E0,0E0,0E0,0E0,0E0,0E0,0E0],"parents":[2147483647,0,0,1,1,2,2,3,3,4,4,5,5,6,6,7,7,8,8,9,9,10,10,11,11,12,12,13,13,14,14,15,15,16,16,17,17,18,18,19,19,20,20,21,21,24,24,25,25,27,27,28,28,29,29,30,30,31,31,32,32,33,33,34,34,35,35,36,36,37,37,38,38,39,39,40,40,41,41,42,42,43,43,44,44,45,45,46,46,48,48,49,49,50,50,51,51,52,52,53,53,54,54,55,55,56,56],"right_children":[2,4,6,8,10,12,14,16,18,20,22,24,26,28,30,32,34,36,38,40,42,44,-1,-1,46,48,-1,50,52,54,56,58,60,62,64,66,68,70,72,74,76,78,80,82,84,86,88,-1,90,92,94,96,98,100,102,104,106,-1,-1,-1,-1,-1,-1,-1,-1,-1,-1,-1,-1,-1,-1,-1,-1,-1,-1,-1,-1,-1,-1,-1,-1,-1,-1,-1,-1,-1,-1,-1,-1,-1,-1,-1,-1,-1,-1,-1,-1,-1,-1,-1,-1,-1,-1,-1,-1,-1,-1],"split_conditions":[2.976E1,2.643E1,4.78E0,2.613E1,9.8555E0,1.642E1,5.02E0,9.112E1,6.41E0,1.758E1,6.63E0,4.21E0,4.27E0,4.92E0,8.406E1,2.668E1,1.62E0,9.8122E0,2.301E1,1.40717E1,2.479E1,2.904E1,1.0025213E1,-6.279956E-1,4.45E0,2.726E1,-1.665299E0,3.47E0,1.733E1,8.381E1,2.648E1,1.819E1,8.988E1,2.303E1,5.55E0,2.635E1,1.27E0,7.4E0,8.194E1,7.681E1,1.88E0,9.6E-1,2.86E0,2.645E1,5.04E0,2.971E1,2.849E1,4.7968128E-1,3.89E0,2.18E0,2.752E1,2.737E1,1.91E0,1.849E1,3.04E1,7.21E0,2.651E1,-1.20310105E-1,8.853284E0,5.0428778E-2,2.9239002E-1,9.926445E0,-2.6874837E-1,2.4531077E-1,-1.2358199E0,-5.745791E-1,-1.5099742E-1,5.020836E0,2.2087327E-1,-2.3553956E-1,7.240047E-1,2.749955E-1,2.6692307E0,-2.9381776E-1,-1.0377133E0,-2.823357E-1,1.7378424E0,4.897278E0,3.7658545E-1,3.8268325E0,1.2271693E0,2.1776073E1,-2.4400875E-1,4.594319E-1,7.4101224E0,6.011645E-2,-2.3002833E-1,1.0980752E0,4.4417843E-1,-1.4253356E0,-6.49116E-1,-9.1209924E-1,1.8418931E0,-2.0864098E0,-7.029385E-1,6.6492653E0,1.2911434E-1,-1.7283674E0,1.9615384E0,-1.6130188E-2,1.554634E-1,3.285414E-1,1.6895922E0,-9.4905096E-1,-1.355491E-1,4.563666E0,3.5027698E-1],"split_indices":[2,0,1,0,7,5,1,4,1,5,1,1,6,1,4,2,6,7,3,8,3,2,0,0,1,0,0,6,5,4,0,5,4,0,1,0,6,1,4,4,6,6,6,0,6,0,0,0,6,6,0,0,6,5,2,1,0,0,0,0,0,0,0,0,0,0,0,0,0,0,0,0,0,0,0,0,0,0,0,0,0,0,0,0,0,0,0,0,0,0,0,0,0,0,0,0,0,0,0,0,0,0,0,0,0,0,0],"split_type":[0,0,0,0,0,0,0,0,0,0,0,0,0,0,0,0,0,0,0,0,0,0,0,0,0,0,0,0,0,0,0,0,0,0,0,0,0,0,0,0,0,0,0,0,0,0,0,0,0,0,0,0,0,0,0,0,0,0,0,0,0,0,0,0,0,0,0,0,0,0,0,0,0,0,0,0,0,0,0,0,0,0,0,0,0,0,0,0,0,0,0,0,0,0,0,0,0,0,0,0,0,0,0,0,0,0,0],"sum_hessian":[3.27808E5,6.9965E4,2.57843E5,6.9133E4,8.32E2,1.24E2,2.57719E5,6.7661E4,1.472E3,7.26E2,1.06E2,3.9E1,8.5E1,1.11E2,2.57608E5,6.5013E4,2.648E3,9.92E2,4.8E2,2.18E2,5.08E2,1E2,6E0,1.5E1,2.4E1,7.3E1,1.2E1,6.6E1,4.5E1,2.55785E5,1.823E3,4.288E3,6.0725E4,3.5E1,2.613E3,8.88E2,1.04E2,3.89E2,9.1E1,2.06E2,1.2E1,4.55E2,5.3E1,6E0,9.4E1,1.1E1,1.3E1,5E0,6.8E1,4E1,2.6E1,1.4E1,3.1E1,2.55318E5,4.67E2,1.701E3,1.22E2,4.284E3,4E0,5.8565E4,2.16E3,1E1,2.5E1,2.526E3,8.7E1,6.65E2,2.23E2,2E0,1.02E2,3.6E2,2.9E1,5.5E1,3.6E1,1.14E2,9.2E1,6E0,6E0,1E1,4.45E2,3.9E1,1.4E1,2E0,4E0,9E1,4E0,9E0,2E0,2E0,1.1E1,4.5E1,2.3E1,1.4E1,2.6E1,1.3E1,1.3E1,1.2E1,2E0,5E0,2.6E1,2.53062E5,2.256E3,3.73E2,9.4E1,3.38E2,1.363E3,1.6E1,1.06E2],"tree_param":{"num_deleted":"0","num_feature":"9","num_nodes":"107","size_leaf_vector":"1"}},{"base_weights":[7.665946E-4,-5.040203E-2,1.055965E-1,3.9471477E-1,-5.511271E-2,6.353543E-1,7.841817E-2,1.0147021E0,-1.6140758E-1,-2.3702593E-1,-4.617954E-2,6.0869675E0,4.9238375E-1,2.7404243E-2,3.333845E-1,7.5124526E-1,7.4182262E0,1.2242641E-1,-8.039768E-1,-6.414478E-1,5.7150796E-3,-4.962817E-2,3.1352537E0,2.1831253E0,2.586184E1,1.7753966E0,-2.8149186E-2,4.6153534E-2,-9.854746E-1,2.3870211E-2,1.2149814E0,1.007465E0,-1.6374556E0,6.5411717E-1,6.893218E0,-5.2062446E-1,9.8601985E-1,-3.823381E-2,-1.372738E0,3.9543242E0,-8.105657E-1,2.7391475E-1,-5.445461E-1,2.3647617E-1,-5.9024498E-2,2.3204358E0,3.5542397E0,1.1653542E1,2.1169534E-2,1.3775599E1,1.9259981E1,3.902928E-1,8.699328E0,-1.658058E-1,3.2430258E0,5.1424637E-2,-2.3075712E0,-1.0663865E0,1.6758558E0,2.0765269E-3,6.8790216E0,3.8325164E-1,2.1012058E0,2.1254542E-1,1.1446052E0,-6.1457485E-1,4.8501417E-1,-3.743586E-1,2.2060363E0,-1.3101208E-2,-4.7259572E-1,-3.2271105E-1,6.6670203E-1,1.3328518E0,-7.2501205E-2,-4.760832E-1,2.7276418E-1,-4.3309417E-1,5.696637E0,-2.5387558E-1,3.061114E0,1.17671095E-1,-1.5562559E0,5.868327E-1,-2.4703099E-1,-3.9630316E-2,2.4815461E-1,-1.7969556E-1,-1.5759174E-2,1.080366E0,-5.9915596E-1,-2.653728E-1,1.1056844E1,-6.702633E-1,8.439125E-1,7.219233E0,-6.279166E-1,-1.5941624E-1,1.0108104E0,-3.6905825E-1,4.271245E0,-1.0337769E-1,4.4958326E-1,6.512969E0,-1.0182419E0,1.2809848E-2,5.7604116E-1,-1.2318867E0,7.7085745E-1,-1.9088474E-1,-6.7578864E-1,-1.7903055E0,1.2081184E-2,-1.5499748E0,3.0155635E0,5.246155E-1,2.3882957E-2,1.3769739E0,4.7598454E-1],"categories":[],"categories_nodes":[],"categories_segments":[],"categories_sizes":[],"default_left":[0,0,0,0,0,0,0,0,0,0,0,0,0,0,0,0,0,0,0,0,0,0,0,0,0,0,0,0,0,0,0,0,0,0,0,0,0,0,0,0,0,0,0,0,0,0,0,0,0,0,0,0,0,0,0,0,0,0,0,0,0,0,0,0,0,0,0,0,0,0,0,0,0,0,0,0,0,0,0,0,0,0,0,0,0,0,0,0,0,0,0,0,0,0,0,0,0,0,0,0,0,0,0,0,0,0,0,0,0,0,0,0,0,0,0,0,0,0,0],"id":11,"left_children":[1,3,5,7,9,11,13,15,17,19,21,23,25,27,29,31,33,35,37,39,41,43,45,47,49,51,53,55,57,59,61,63,65,67,-1,69,71,73,75,77,79,81,83,85,87,89,-1,91,93,95,-1,97,99,101,103,105,107,109,-1,111,113,115,117,-1,-1,-1,-1,-1,-1,-1,-1,-1,-1,-1,-1,-1,-1,-1,-1,-1,-1,-1,-1,-1,-1,-1,-1,-1,-1,-1,-1,-1,-1,-1,-1,-1,-1,-1,-1,-1,-1,-1,-1,-1,-1,-1,-1,-1,-1,-1,-1,-1,-1,-1,-1,-1,-1,-1,-1],"loss_changes":[1.7583735E3,4.619181E2,1.5480734E3,7.955917E2,3.5421985E2,4.0866208E3,1.330304E3,1.8350012E3,2.2205853E2,1.00162976E3,2.2798079E3,1.0288068E4,3.4154365E3,1.618571E3,4.6528965E3,6.436713E2,4.510458E3,4.69771E2,1.6239827E2,2.9776553E3,9.4126605E2,5.579877E2,1.5697532E3,2.3133855E3,9.309605E3,1.4151982E4,1.6391754E3,1.0383013E3,8.2959937E2,1.8856998E3,3.2652812E3,7.9314484E2,1.3977551E2,4.0417807E2,0E0,2.4390587E2,9.225615E2,1.4693217E2,1.0604773E2,1.1064576E4,1.4598032E3,2.7729788E3,1.4591953E3,1.4370659E3,7.0460974E2,1.1518901E3,0E0,6.6684595E3,5.9188116E2,2.9891343E3,0E0,3.3818142E3,1.3545355E4,1.0399467E3,1.8091133E4,1.3612534E3,1.6510122E3,7.796946E2,0E0,2.869285E3,1.580693E3,9.480802E2,2.739745E3,0E0,0E0,0E0,0E0,0E0,0E0,0E0,0E0,0E0,0E0,0E0,0E0,0E0,0E0,0E0,0E0,0E0,0E0,0E0,0E0,0E0,0E0,0E0,0E0,0E0,0E0,0E0,0E0,0E0,0E0,0E0,0E0,0E0,0E0,0E0,0E0,0E0,0E0,0E0,0E0,0E0,0E0,0E0,0E0,0E0,0E0,0E0,0E0,0E0,0E0,0E0,0E0,0E0,0E0,0E0,0E0],"parents":[2147483647,0,0,1,1,2,2,3,3,4,4,5,5,6,6,7,7,8,8,9,9,10,10,11,11,12,12,13,13,14,14,15,15,16,16,17,17,18,18,19,19,20,20,21,21,22,22,23,23,24,24,25,25,26,26,27,27,28,28,29,29,30,30,31,31,32,32,33,33,35,35,36,36,37,37,38,38,39,39,40,40,41,41,42,42,43,43,44,44,45,45,47,47,48,48,49,49,51,51,52,52,53,53,54,54,55,55,56,56,57,57,59,59,60,60,61,61,62,62],"right_children":[2,4,6,8,10,12,14,16,18,20,22,24,26,28,30,32,34,36,38,40,42,44,46,48,50,52,54,56,58,60,62,64,66,68,-1,70,72,74,76,78,80,82,84,86,88,90,-1,92,94,96,-1,98,100,102,104,106,108,110,-1,112,114,116,118,-1,-1,-1,-1,-1,-1,-1,-1,-1,-1,-1,-1,-1,-1,-1,-1,-1,-1,-1,-1,-1,-1,-1,-1,-1,-1,-1,-1,-1,-1,-1,-1,-1,-1,-1,-1,-1,-1,-1,-1,-1,-1,-1,-1,-1,-1,-1,-1,-1,-1,-1,-1,-1,-1,-1,-1],"split_conditions":[1.678E1,1.23E0,2.396E1,8.47E0,7.17E0,1.6E0,3.17E0,2.78E1,1.16E0,9.8122E0,8.694E1,1.55E0,9.8122E0,3.11E0,9.8122E0,2.668E1,6.769E1,1.605E1,6.481E1,2.303E1,3E0,2.963E1,2.401E1,2.088E1,5.88E0,2.682E1,1.77E1,9.194E1,9.194E1,9.194E1,1.727E1,2.635E1,2.773E1,2.812E1,6.893218E0,1.575E1,9.05E0,8.84E0,1.107E1,3.48E0,9.112E1,9.194E1,4.45E0,2.088E1,7.99E0,7.87E0,3.5542397E0,2.078E1,2.649E1,2.303E1,1.9259981E1,1.733E1,2.148E1,3.61E0,2.6E1,9.112E1,2.7E0,1.782E1,1.6758558E0,2.668E1,2.281E1,2.155E1,5.88E0,2.1254542E-1,1.1446052E0,-6.1457485E-1,4.8501417E-1,-3.743586E-1,2.2060363E0,-1.3101208E-2,-4.7259572E-1,-3.2271105E-1,6.6670203E-1,1.3328518E0,-7.2501205E-2,-4.760832E-1,2.7276418E-1,-4.3309417E-1,5.696637E0,-2.5387558E-1,3.061114E0,1.17671095E-1,-1.5562559E0,5.868327E-1,-2.4703099E-1,-3.9630316E-2,2.4815461E-1,-1.7969556E-1,-1.5759174E-2,1.080366E0,-5.9915596E-1,-2.653728E-1,1.1056844E1,-6.702633E-1,8.439125E-1,7.219233E0,-6.279166E-1,-1.5941624E-1,1.0108104E0,-3.6905825E-1,4.271245E0,-1.0337769E-1,4.4958326E-1,6.512969E0,-1.0182419E0,1.2809848E-2,5.7604116E-1,-1.2318867E0,7.7085745E-1,-1.9088474E-1,-6.7578864E-1,-1.7903055E0,1.2081184E-2,-1.5499748E0,3.0155635E0,5.246155E-1,2.3882957E-2,1.3769739E0,4.7598454E-1],"split_indices":[5,6,0,1,1,6,6,0,6,7,4,6,7,6,7,0,4,5,4,0,6,2,0,3,1,2,5,4,4,4,5,0,0,0,0,5,1,1,1,6,4,4,1,3,1,1,0,3,2,0,0,5,3,6,2,4,6,5,0,2,3,3,1,0,0,0,0,0,0,0,0,0,0,0,0,0,0,0,0,0,0,0,0,0,0,0,0,0,0,0,0,0,0,0,0,0,0,0,0,0,0,0,0,0,0,0,0,0,0,0,0,0,0,0,0,0,0,0,0],"split_type":[0,0,0,0,0,0,0,0,0,0,0,0,0,0,0,0,0,0,0,0,0,0,0,0,0,0,0,0,0,0,0,0,0,0,0,0,0,0,0,0,0,0,0,0,0,0,0,0,0,0,0,0,0,0,0,0,0,0,0,0,0,0,0,0,0,0,0,0,0,0,0,0,0,0,0,0,0,0,0,0,0,0,0,0,0,0,0,0,0,0,0,0,0,0,0,0,0,0,0,0,0,0,0,0,0,0,0,0,0,0,0,0,0,0,0,0,0,0,0],"sum_hessian":[3.27808E5,2.20285E5,1.07523E5,2.306E3,2.17979E5,5.246E3,1.02277E5,1.09E3,1.216E3,1.0202E4,2.07777E5,1.33E2,5.113E3,8.5226E4,1.7051E4,1.048E3,4.2E1,8.44E2,3.72E2,3.826E3,6.376E3,2.07553E5,2.24E2,1.12E2,2.1E1,1.475E3,3.638E3,8.3678E4,1.548E3,1.2621E4,4.43E3,9.47E2,1.01E2,3E1,1.2E1,4.84E2,3.6E2,1.59E2,2.13E2,1.35E2,3.691E3,4.287E3,2.089E3,6.599E3,2.00954E5,2.06E2,1.8E1,2E1,9.2E1,1.7E1,4E0,1.23E3,2.45E2,3.492E3,1.46E2,8.3492E4,1.86E2,1.53E3,1.8E1,1.2582E4,3.9E1,2.286E3,2.144E3,8.57E2,9E1,9E1,1.1E1,2.4E1,6E0,3.34E2,1.5E2,1.35E2,2.25E2,6E0,1.53E2,1.95E2,1.8E1,1E2,3.5E1,3.68E3,1.1E1,4.197E3,9E1,2.09E2,1.88E3,4.064E3,2.535E3,2.387E3,1.98567E5,1.59E2,4.7E1,1.4E1,6E0,5.1E1,4.1E1,1E1,7E0,9.4E2,2.9E2,8.8E1,1.57E2,3.154E3,3.38E2,3.8E1,1.08E2,8.3105E4,3.87E2,1.36E2,5E1,1.124E3,4.06E2,7.9E1,1.2503E4,8E0,3.1E1,4.15E2,1.871E3,3.66E2,1.778E3],"tree_param":{"num_deleted":"0","num_feature":"9","num_nodes":"119","size_leaf_vector":"1"}},{"base_weights":[7.572811E-4,5.9994865E-2,-5.224726E-2,7.6286316E-2,-1.5882522E-1,-5.011858E-2,-7.358284E-1,4.9864035E-2,2.7222344E-1,-2.4610741E-2,-1.7954521E0,-4.7841594E-2,-5.9933966E-1,2.6726997E0,-8.797272E-1,4.2660143E-2,9.80659E-1,1.5399176E0,1.6812745E-1,-2.1698394E-1,6.124062E-1,-3.3788743E0,-1.1535276E0,-5.1039133E-2,1.6177005E-1,-6.7398673E-1,1.3194464E0,-2.8982013E-1,1.0604956E0,-2.254513E0,-5.6414723E-1,6.8313524E-2,-2.4422719E-1,-2.1213164E0,1.6524334E0,6.7480984E0,1.4753808E-1,-3.0927034E-2,6.777748E-1,1.2697569E0,-2.896328E-1,5.3317833E0,5.2217686E-1,1.2604342E0,-3.8183444E0,-2.1860468E-1,-3.649217E0,-4.7559727E-2,-2.0339729E-1,6.8123406E-1,-1.26849E-1,-3.4793845E-1,-8.6132044E-1,9.497716E-1,6.411294E-1,-1.7273495E0,-2.685788E0,-2.4341163E-1,-1.4799829E0,8.312285E-2,9.906303E-3,-8.642537E-1,-4.4816084E-2,-4.1501937E0,-3.0299884E-1,1.0542582E0,-1.3355629E-1,5.4346734E-1,9.753471E0,7.3809035E-2,-2.4586625E0,3.704432E-1,-4.6381265E-2,1.7825797E-1,7.131552E0,7.000313E-2,4.3126187E0,-3.4974948E-1,-4.736804E-2,-1.8080503E-1,3.6988804E-1,-5.6756717E-1,4.539236E0,-1.3656934E0,1.9838335E-1,1.8728422E-1,-8.331866E-1,3.2648748E-1,-1.3771822E0,-1.5148604E-2,6.454729E-2,-1.70214E-1,-3.9021946E-2,3.7059748E-1,3.1453732E-2,2.3743038E-1,-9.340307E-2,-1.4098784E-1,8.996541E-1,-2.3276637E-1,-4.6502563E-1,2.2739747E-1,-2.5441718E-1,-6.265392E-1,-1.5904614E-1,-7.4346244E-1,-1.0909637E0,-1.5953256E-1,3.2684016E-1,-5.82832E-1,-2.6209578E-1],"categories":[],"categories_nodes":[],"categories_segments":[],"categories_sizes":[],"default_left":[0,0,0,0,0,0,0,0,0,0,0,0,0,0,0,0,0,0,0,0,0,0,0,0,0,0,0,0,0,0,0,0,0,0,0,0,0,0,0,0,0,0,0,0,0,0,0,0,0,0,0,0,0,0,0,0,0,0,0,0,0,0,0,0,0,0,0,0,0,0,0,0,0,0,0,0,0,0,0,0,0,0,0,0,0,0,0,0,0,0,0,0,0,0,0,0,0,0,0,0,0,0,0,0,0,0,0,0,0,0,0],"id":12,"left_children":[1,3,5,7,9,11,13,15,17,19,21,23,25,27,29,31,33,35,37,39,41,43,45,47,49,51,53,-1,-1,55,57,59,61,63,65,67,69,71,73,75,77,-1,79,81,83,85,87,89,91,93,95,97,99,-1,101,103,105,107,109,-1,-1,-1,-1,-1,-1,-1,-1,-1,-1,-1,-1,-1,-1,-1,-1,-1,-1,-1,-1,-1,-1,-1,-1,-1,-1,-1,-1,-1,-1,-1,-1,-1,-1,-1,-1,-1,-1,-1,-1,-1,-1,-1,-1,-1,-1,-1,-1,-1,-1,-1,-1],"loss_changes":[1.0292778E3,5.518688E2,2.5170981E2,7.4588837E2,2.3562383E3,2.1565839E2,2.6574072E2,8.512554E2,2.2589285E3,1.2151664E3,8.2246606E2,1.15129E2,1.02870285E2,7.244342E1,2.2259726E2,9.272123E2,2.0352373E3,9.419045E3,1.6051249E3,8.2297205E2,3.5519314E3,4.8190063E2,1.3525029E3,8.967529E1,3.8704855E2,4.1601074E1,3.1787323E1,0E0,0E0,1.7186493E1,1.2330475E2,8.5202783E2,2.5854148E3,2.2509023E3,3.1335896E3,3.4789086E4,8.451081E2,1.781492E3,8.563854E3,4.818559E3,8.380675E2,0E0,1.8308713E3,9.4682666E2,7.066199E2,9.1400824E2,7.0965137E2,1.2757678E2,1.0072945E2,2.94331E2,2.8148083E2,1.0432062E2,2.4394012E1,0E0,4.2974424E0,1.8779724E1,1.0531616E0,1.2088206E2,2.888852E1,0E0,0E0,0E0,0E0,0E0,0E0,0E0,0E0,0E0,0E0,0E0,0E0,0E0,0E0,0E0,0E0,0E0,0E0,0E0,0E0,0E0,0E0,0E0,0E0,0E0,0E0,0E0,0E0,0E0,0E0,0E0,0E0,0E0,0E0,0E0,0E0,0E0,0E0,0E0,0E0,0E0,0E0,0E0,0E0,0E0,0E0,0E0,0E0,0E0,0E0,0E0,0E0],"parents":[2147483647,0,0,1,1,2,2,3,3,4,4,5,5,6,6,7,7,8,8,9,9,10,10,11,11,12,12,13,13,14,14,15,15,16,16,17,17,18,18,19,19,20,20,21,21,22,22,23,23,24,24,25,25,26,26,29,29,30,30,31,31,32,32,33,33,34,34,35,35,36,36,37,37,38,38,39,39,40,40,42,42,43,43,44,44,45,45,46,46,47,47,48,48,49,49,50,50,51,51,52,52,54,54,55,55,56,56,57,57,58,58],"right_children":[2,4,6,8,10,12,14,16,18,20,22,24,26,28,30,32,34,36,38,40,42,44,46,48,50,52,54,-1,-1,56,58,60,62,64,66,68,70,72,74,76,78,-1,80,82,84,86,88,90,92,94,96,98,100,-1,102,104,106,108,110,-1,-1,-1,-1,-1,-1,-1,-1,-1,-1,-1,-1,-1,-1,-1,-1,-1,-1,-1,-1,-1,-1,-1,-1,-1,-1,-1,-1,-1,-1,-1,-1,-1,-1,-1,-1,-1,-1,-1,-1,-1,-1,-1,-1,-1,-1,-1,-1,-1,-1,-1,-1],"split_conditions":[1.116E1,3.98E0,1.74E1,3.28E0,8.625E1,7.375E1,1.75E0,9.194E1,3.32E0,1.721E1,4.07E0,1.66E1,7.919E1,2.72E1,2.29E0,3E0,1.678E1,5.76E0,1.752E1,2.157E1,2.798E1,2.045E1,4.55E0,1.605E1,1.678E1,3.194E1,1.8E0,-2.8982013E-1,1.0604956E0,2.948E1,3.723E1,2.452E1,2.628E1,2.11E0,2.355E1,5.62E0,9.062E1,2.088E1,3.623E1,1.685E1,3.158E1,5.3317833E0,4.27E0,2.037E1,6.85E0,2.21E1,1.642E1,1.581E1,1.144E1,2.39E1,1.134E1,1.672E1,2.192E1,9.497716E-1,2.592E1,2.937E1,3.083E1,3.057E1,2.558E1,8.312285E-2,9.906303E-3,-8.642537E-1,-4.4816084E-2,-4.1501937E0,-3.0299884E-1,1.0542582E0,-1.3355629E-1,5.4346734E-1,9.753471E0,7.3809035E-2,-2.4586625E0,3.704432E-1,-4.6381265E-2,1.7825797E-1,7.131552E0,7.000313E-2,4.3126187E0,-3.4974948E-1,-4.736804E-2,-1.8080503E-1,3.6988804E-1,-5.6756717E-1,4.539236E0,-1.3656934E0,1.9838335E-1,1.8728422E-1,-8.331866E-1,3.2648748E-1,-1.3771822E0,-1.5148604E-2,6.454729E-2,-1.70214E-1,-3.9021946E-2,3.7059748E-1,3.1453732E-2,2.3743038E-1,-9.340307E-2,-1.4098784E-1,8.996541E-1,-2.3276637E-1,-4.6502563E-1,2.2739747E-1,-2.5441718E-1,-6.265392E-1,-1.5904614E-1,-7.4346244E-1,-1.0909637E0,-1.5953256E-1,3.2684016E-1,-5.82832E-1,-2.6209578E-1],"split_indices":[1,6,5,6,4,4,6,4,6,5,6,5,4,0,6,6,5,1,5,3,2,3,6,5,5,2,6,0,0,0,2,0,2,6,0,1,4,3,2,5,2,0,6,3,1,3,5,5,1,3,1,5,3,0,0,0,0,0,3,0,0,0,0,0,0,0,0,0,0,0,0,0,0,0,0,0,0,0,0,0,0,0,0,0,0,0,0,0,0,0,0,0,0,0,0,0,0,0,0,0,0,0,0,0,0,0,0,0,0,0,0],"split_type":[0,0,0,0,0,0,0,0,0,0,0,0,0,0,0,0,0,0,0,0,0,0,0,0,0,0,0,0,0,0,0,0,0,0,0,0,0,0,0,0,0,0,0,0,0,0,0,0,0,0,0,0,0,0,0,0,0,0,0,0,0,0,0,0,0,0,0,0,0,0,0,0,0,0,0,0,0,0,0,0,0,0,0,0,0,0,0,0,0,0,0,0,0,0,0,0,0,0,0,0,0,0,0,0,0,0,0,0,0,0,0],"sum_hessian":[3.27808E5,1.54802E5,1.73006E5,1.44076E5,1.0726E4,1.7247E5,5.36E2,1.26957E5,1.7119E4,9.914E3,8.12E2,1.71759E5,7.11E2,2.1E1,5.15E2,1.25983E5,9.74E2,1.298E3,1.5821E4,7.615E3,2.299E3,2.33E2,5.79E2,1.69179E5,2.58E3,6.85E2,2.6E1,4E0,1.7E1,9.5E1,4.2E2,1.15643E5,1.034E4,1.73E2,8.01E2,2.73E2,1.025E3,1.1378E4,4.443E3,3.54E2,7.261E3,1.1E1,2.288E3,2E1,2.13E2,4.22E2,1.57E2,1.65403E5,3.776E3,9.21E2,1.659E3,2.51E2,4.34E2,6E0,2E1,4.5E1,5E1,3.12E2,1.08E2,1.6722E4,9.8921E4,3.58E2,9.982E3,1.4E1,1.59E2,4.24E2,3.77E2,2.3E2,4.3E1,1.014E3,1.1E1,1.012E3,1.0366E4,4.428E3,1.5E1,3.29E2,2.5E1,9.48E2,6.313E3,8.86E2,1.402E3,1.7E1,3E0,1.83E2,3E1,3.18E2,1.04E2,2.6E1,1.31E2,1.63576E5,1.827E3,6.32E2,3.144E3,4.69E2,4.52E2,2.77E2,1.382E3,2.43E2,8E0,3.88E2,4.6E1,1.9E1,1E0,3.4E1,1.1E1,4.4E1,6E0,2.57E2,5.5E1,6E1,4.8E1],"tree_param":{"num_deleted":"0","num_feature":"9","num_nodes":"111","size_leaf_vector":"1"}},{"base_weights":[5.931004E-4,4.2137295E-2,-3.657977E-2,-6.0273004E-1,4.7005717E-2,-3.2149903E-2,-2.026807E-1,-4.1344678E-1,-8.530303E0,1.3446963E0,4.1917924E-2,4.7369715E-2,-3.8268354E-2,-2.877604E-1,5.0774044E-1,-5.9454644E-1,6.7612243E0,-5.8411436E0,-6.3515105E0,-1.6789865E0,3.7741327E0,5.485384E-4,1.2056782E-1,-2.3029828E-1,8.863265E-2,-3.758074E-2,-4.1104066E-1,-1.7171788E-1,-1.0882984E0,-1.504425E-1,1.0183266E0,-1.5845743E-1,-2.0289695E0,2.385098E0,7.9243164E0,-8.756019E0,-2.1095972E0,-6.3358707E0,-8.820409E-1,1.5433371E0,1.3310187E1,-3.735919E0,4.1657803E-3,1.0239927E-1,2.3626423E0,-2.624309E-1,7.6002175E-1,-1.5833776E-1,1.6502294E-1,-3.844686E-2,2.2077817E-1,-1.1260527E0,-1.2883206E-2,-2.36932E-1,3.3116433E-1,-5.0558114E-1,-1.302117E0,3.7098438E-2,-3.009689E0,5.0102484E-1,3.187328E0,-1.593473E-1,1.6713814E0,1.3064864E0,-8.1070256E-1,3.0767757E-1,2.6778688E0,-1.1777804E0,-2.890914E0,3.0312896E-1,-1.6295131E0,-8.8241976E-1,-1.9611114E0,2.642836E0,-3.5428876E-1,-8.499748E-2,1.5845827E0,1.014662E0,1.1382673E1,9.1329545E-1,-1.918393E0,9.336995E-2,-1.3143733E-2,-1.9666634E-3,1.1837976E-1,7.078588E0,6.312742E-1,-4.2142265E-2,-2.4626704E-1,-7.429309E-2,-1.284871E-3,6.450974E-1,4.5306362E-2,-1.1347609E-2,-1.725286E-1,-3.6264226E-2,1.1028858E0,-1.23028E-1,-5.023404E-1,-2.4014996E-1,1.191115E-1,2.5681539E-2,-1.0691733E-1,-1.5662456E-1,3.400778E-1,1.3438053E-1,-2.9153296E-1,-4.2743745E-1,-7.3721196E-4,-1.7216748E-1,2.9768217E-1,-1.2336838E0,-3.1138617E-1,5.7119143E-1,-9.906515E-2,2.2121542E0,1.02096304E-1],"categories":[],"categories_nodes":[],"categories_segments":[],"categories_sizes":[],"default_left":[0,0,0,0,0,0,0,0,0,0,0,0,0,0,0,0,0,0,0,0,0,0,0,0,0,0,0,0,0,0,0,0,0,0,0,0,0,0,0,0,0,0,0,0,0,0,0,0,0,0,0,0,0,0,0,0,0,0,0,0,0,0,0,0,0,0,0,0,0,0,0,0,0,0,0,0,0,0,0,0,0,0,0,0,0,0,0,0,0,0,0,0,0,0,0,0,0,0,0,0,0,0,0,0,0,0,0,0,0,0,0,0,0,0,0,0,0],"id":13,"left_children":[1,3,5,7,9,11,13,15,17,19,21,23,25,27,29,31,33,-1,35,37,39,41,43,45,47,49,51,53,55,57,59,61,63,65,-1,67,69,71,73,75,77,79,81,83,85,87,-1,89,91,93,95,97,99,101,103,105,107,109,111,113,115,-1,-1,-1,-1,-1,-1,-1,-1,-1,-1,-1,-1,-1,-1,-1,-1,-1,-1,-1,-1,-1,-1,-1,-1,-1,-1,-1,-1,-1,-1,-1,-1,-1,-1,-1,-1,-1,-1,-1,-1,-1,-1,-1,-1,-1,-1,-1,-1,-1,-1,-1,-1,-1,-1,-1,-1],"loss_changes":[5.0624252E2,4.8603027E2,1.27292816E2,1.7371188E3,1.01436E3,8.199007E1,2.7177435E2,1.4774607E3,5.199149E2,4.4138438E3,4.9796207E2,1.3796748E2,4.009262E1,3.726994E2,1.6179764E2,6.92147E2,2.3451313E3,0E0,2.2632147E2,9.890354E2,7.063363E3,1.3555464E3,2.1486646E3,1.3902313E2,1.977999E2,3.4958527E1,8.197545E1,1.15090576E2,6.263629E1,1.13255295E2,3.0247275E2,1.8181093E3,1.1208481E3,2.0427034E2,0E0,2.5951416E1,1.091392E2,7.4034424E0,6.767127E2,1.8522008E3,1.5278105E4,1.7680651E3,1.4761708E3,1.6660111E3,2.2765876E3,1.04838844E2,0E0,3.4077507E1,2.2225146E2,5.189705E1,6.167202E2,3.975554E1,6.0369976E1,1.1966612E2,2.7651337E2,6.1779716E1,5.914691E1,1.16706375E2,2.3993858E1,2.5719006E2,6.17281E2,0E0,0E0,0E0,0E0,0E0,0E0,0E0,0E0,0E0,0E0,0E0,0E0,0E0,0E0,0E0,0E0,0E0,0E0,0E0,0E0,0E0,0E0,0E0,0E0,0E0,0E0,0E0,0E0,0E0,0E0,0E0,0E0,0E0,0E0,0E0,0E0,0E0,0E0,0E0,0E0,0E0,0E0,0E0,0E0,0E0,0E0,0E0,0E0,0E0,0E0,0E0,0E0,0E0,0E0,0E0,0E0],"parents":[2147483647,0,0,1,1,2,2,3,3,4,4,5,5,6,6,7,7,8,8,9,9,10,10,11,11,12,12,13,13,14,14,15,15,16,16,18,18,19,19,20,20,21,21,22,22,23,23,24,24,25,25,26,26,27,27,28,28,29,29,30,30,31,31,32,32,33,33,35,35,36,36,37,37,38,38,39,39,40,40,41,41,42,42,43,43,44,44,45,45,47,47,48,48,49,49,50,50,51,51,52,52,53,53,54,54,55,55,56,56,57,57,58,58,59,59,60,60],"right_children":[2,4,6,8,10,12,14,16,18,20,22,24,26,28,30,32,34,-1,36,38,40,42,44,46,48,50,52,54,56,58,60,62,64,66,-1,68,70,72,74,76,78,80,82,84,86,88,-1,90,92,94,96,98,100,102,104,106,108,110,112,114,116,-1,-1,-1,-1,-1,-1,-1,-1,-1,-1,-1,-1,-1,-1,-1,-1,-1,-1,-1,-1,-1,-1,-1,-1,-1,-1,-1,-1,-1,-1,-1,-1,-1,-1,-1,-1,-1,-1,-1,-1,-1,-1,-1,-1,-1,-1,-1,-1,-1,-1,-1,-1,-1,-1,-1,-1],"split_conditions":[1.116E1,2.287E1,6.725E1,1.703E1,2.303E1,1.23E1,3.63E0,1.697E1,2.09E0,2.074E1,9.8122E0,1.86E0,1.697E1,2.284E1,6.881E1,2.088E1,4.21E0,-5.8411436E0,1.715E1,5.32E0,3.52E0,2.315E1,1.831E1,1.733E1,4.55E1,6.562E1,2.443E1,2.253E1,6.806E1,1.776E1,4.61E0,2.084E1,1.98E0,3.89E0,7.9243164E0,2.267E1,1.344E1,2.05E1,1.84E0,2.115E1,9.062E1,8.925E1,2.163E1,2.263E1,7.219E1,1.624E1,7.6002175E-1,3.942E1,1.88E0,6.525E1,3.73E0,1.3407E1,1.25E1,3.233E1,6.881E1,1.144E1,9.8122E0,2.308E1,1.144E1,3.87E0,6.994E1,-1.593473E-1,1.6713814E0,1.3064864E0,-8.1070256E-1,3.0767757E-1,2.6778688E0,-1.1777804E0,-2.890914E0,3.0312896E-1,-1.6295131E0,-8.8241976E-1,-1.9611114E0,2.642836E0,-3.5428876E-1,-8.499748E-2,1.5845827E0,1.014662E0,1.1382673E1,9.1329545E-1,-1.918393E0,9.336995E-2,-1.3143733E-2,-1.9666634E-3,1.1837976E-1,7.078588E0,6.312742E-1,-4.2142265E-2,-2.4626704E-1,-7.429309E-2,-1.284871E-3,6.450974E-1,4.5306362E-2,-1.1347609E-2,-1.725286E-1,-3.6264226E-2,1.1028858E0,-1.23028E-1,-5.023404E-1,-2.4014996E-1,1.191115E-1,2.5681539E-2,-1.0691733E-1,-1.5662456E-1,3.400778E-1,1.3438053E-1,-2.9153296E-1,-4.2743745E-1,-7.3721196E-4,-1.7216748E-1,2.9768217E-1,-1.2336838E0,-3.1138617E-1,5.7119143E-1,-9.906515E-2,2.2121542E0,1.02096304E-1],"split_indices":[1,0,4,5,0,1,6,5,6,3,7,6,5,3,4,3,1,0,5,1,6,0,5,5,4,4,3,3,4,5,6,3,6,1,0,0,8,3,6,3,4,4,3,3,4,5,0,2,6,4,6,8,1,2,4,1,7,3,1,6,4,0,0,0,0,0,0,0,0,0,0,0,0,0,0,0,0,0,0,0,0,0,0,0,0,0,0,0,0,0,0,0,0,0,0,0,0,0,0,0,0,0,0,0,0,0,0,0,0,0,0,0,0,0,0,0,0],"split_type":[0,0,0,0,0,0,0,0,0,0,0,0,0,0,0,0,0,0,0,0,0,0,0,0,0,0,0,0,0,0,0,0,0,0,0,0,0,0,0,0,0,0,0,0,0,0,0,0,0,0,0,0,0,0,0,0,0,0,0,0,0,0,0,0,0,0,0,0,0,0,0,0,0,0,0,0,0,0,0,0,0,0,0,0,0,0,0,0,0,0,0,0,0,0,0,0,0,0,0,0,0,0,0,0,0,0,0,0,0,0,0,0,0,0,0,0,0],"sum_hessian":[3.27808E5,1.54802E5,1.73006E5,1.159E3,1.53643E5,1.68513E5,4.493E3,1.133E3,2.6E1,5.99E2,1.53044E5,1.2039E4,1.56474E5,4.013E3,4.8E2,1.106E3,2.7E1,3E0,2.3E1,2.67E2,3.32E2,1.00292E5,5.2752E4,1.557E3,1.0482E4,1.56187E5,2.87E2,3.506E3,5.07E2,2.1E2,2.7E2,8.49E2,2.57E2,2.3E1,4E0,1.4E1,9E0,3.8E1,2.29E2,2.7E2,6.2E1,9.6E1,1.00196E5,5.2329E4,4.23E2,1.54E3,1.7E1,2.476E3,8.006E3,1.55666E5,5.21E2,1.02E2,1.85E2,3.104E3,4.02E2,1.37E2,3.7E2,1.98E2,1.2E1,2.19E2,5.1E1,7.98E2,5.1E1,2.4E1,2.33E2,2E1,3E0,3E0,1.1E1,5E0,4E0,3E0,3.5E1,6E0,2.23E2,1.82E2,8.8E1,4.5E1,1.7E1,2.7E1,6.9E1,1.3539E4,8.6657E4,3.8117E4,1.4212E4,4E0,4.19E2,1.265E3,2.75E2,1.567E3,9.09E2,5.5E1,7.951E3,1.55487E5,1.79E2,4.75E2,4.6E1,4.5E1,5.7E1,6.3E1,1.22E2,8.39E2,2.265E3,1.95E2,2.07E2,4.5E1,9.2E1,3.38E2,3.2E1,1.21E2,7.7E1,7E0,5E0,8.1E1,1.38E2,2E1,3.1E1],"tree_param":{"num_deleted":"0","num_feature":"9","num_nodes":"117","size_leaf_vector":"1"}},{"base_weights":[4.884355E-4,7.098218E-2,-1.74097E-2,5.350301E-2,9.370987E-1,-8.946981E-3,-3.0233318E-1,4.5425467E-2,2.754291E0,1.2679672E-1,2.2586598E0,-1.4670334E-2,6.068583E-1,-5.494537E-2,-7.4306655E-1,5.1669624E-2,-2.4962714E0,6.7739636E-2,1.309582E1,3.1043847E0,-1.738882E-4,7.6467423E0,1.2422293E0,-8.137055E-1,-1.2121082E-2,-7.529107E-2,3.3546886E0,-1.291179E-1,4.526163E0,-9.094874E-2,-1.4004306E0,6.975069E-2,-6.8862104E-1,-3.0208578E0,1.4265156E1,-4.420107E-1,6.1790986E0,2.4039503E1,8.646609E0,8.6617553E-1,-4.7575116E-1,2.3226373E0,4.7446785E0,8.2217664E-1,1.1823428E1,-2.9126635E-1,-3.0390298E0,-1.7544419E-2,2.5347137E-1,-9.658739E-2,3.9716127E0,2.5540993E0,1.4630727E1,-1.5612738E-1,7.8805103E0,7.205665E0,-1.3970894E0,-3.4738663E-1,4.9498224E0,-8.547472E-1,-3.3322484E0,1.9562544E-2,1.3040774E0,-2.634319E-1,9.584592E-1,-9.280986E-2,-1.1979989E0,5.3386083E0,2.1650791E-2,2.527186E-1,-8.191864E-1,2.4068124E0,-6.0778946E-1,2.3075345E0,8.045307E0,-7.7241E-1,3.6521204E0,1.7928648E-1,2.7195802E0,-1.0140114E-1,-1.0754244E0,3.1195068E0,-3.6142373E-1,8.6481494E-1,-1.7584029E-1,2.0848572E0,5.1291265E0,-2.1322495E-1,8.23315E-1,-7.3501915E-1,-1.8234291E0,-2.358751E-1,-4.644157E-3,-1.9794668E-1,2.1523549E-1,7.845804E-2,-2.4605064E-1,3.0229945E0,1.7513399E-1,5.232985E-1,-7.629585E-2,-1.4439642E0,3.3540237E0,-9.1194665E-1,3.4425018E0,-1.5462068E-1,1.0817848E0,1.9818269E0,-9.161661E-1,-3.7882552E-1,1.6029891E-1,-1.054034E0,-4.8074082E-1],"categories":[],"categories_nodes":[],"categories_segments":[],"categories_sizes":[],"default_left":[0,0,0,0,0,0,0,0,0,0,0,0,0,0,0,0,0,0,0,0,0,0,0,0,0,0,0,0,0,0,0,0,0,0,0,0,0,0,0,0,0,0,0,0,0,0,0,0,0,0,0,0,0,0,0,0,0,0,0,0,0,0,0,0,0,0,0,0,0,0,0,0,0,0,0,0,0,0,0,0,0,0,0,0,0,0,0,0,0,0,0,0,0,0,0,0,0,0,0,0,0,0,0,0,0,0,0,0,0,0,0,0,0],"id":14,"left_children":[1,3,5,7,9,11,13,15,17,19,21,23,25,27,29,31,33,35,37,-1,39,41,43,45,47,49,51,53,55,57,59,61,63,65,67,69,71,73,75,77,79,81,-1,83,85,87,89,91,93,95,-1,97,-1,99,101,-1,103,105,107,109,111,-1,-1,-1,-1,-1,-1,-1,-1,-1,-1,-1,-1,-1,-1,-1,-1,-1,-1,-1,-1,-1,-1,-1,-1,-1,-1,-1,-1,-1,-1,-1,-1,-1,-1,-1,-1,-1,-1,-1,-1,-1,-1,-1,-1,-1,-1,-1,-1,-1,-1,-1,-1],"loss_changes":[4.1360004E2,1.00483093E3,6.3037177E2,1.4193156E3,1.4057573E3,8.948474E2,8.2217E2,1.0296965E3,5.389025E3,1.0576973E3,2.7233296E3,5.1239514E2,4.382671E3,1.6421216E3,1.162021E3,8.6626044E2,1.4411504E3,4.855977E2,1.7397705E3,0E0,3.3249704E2,3.39912E3,1.8614812E3,9.291922E2,3.611942E2,5.326311E2,1.6782041E4,1.0299075E3,8.924E3,1.7623016E3,1.420269E3,1.2270094E3,1.1382422E3,4.074762E2,2.4923639E2,4.2558896E2,1.9777682E2,2.9331104E2,1.2187126E3,6.243253E2,2.2190982E2,1.4083488E3,0E0,1.1798531E3,2.9243628E2,8.283904E2,2.571742E2,3.898616E2,2.1268513E3,4.8529608E2,0E0,6.7825117E3,0E0,8.8497394E2,7.23953E2,0E0,1.3036067E3,8.633547E2,8.9508875E2,5.980289E2,8.745923E1,0E0,0E0,0E0,0E0,0E0,0E0,0E0,0E0,0E0,0E0,0E0,0E0,0E0,0E0,0E0,0E0,0E0,0E0,0E0,0E0,0E0,0E0,0E0,0E0,0E0,0E0,0E0,0E0,0E0,0E0,0E0,0E0,0E0,0E0,0E0,0E0,0E0,0E0,0E0,0E0,0E0,0E0,0E0,0E0,0E0,0E0,0E0,0E0,0E0,0E0,0E0,0E0],"parents":[2147483647,0,0,1,1,2,2,3,3,4,4,5,5,6,6,7,7,8,8,9,9,10,10,11,11,12,12,13,13,14,14,15,15,16,16,17,17,18,18,20,20,21,21,22,22,23,23,24,24,25,25,26,26,27,27,28,28,29,29,30,30,31,31,32,32,33,33,34,34,35,35,36,36,37,37,38,38,39,39,40,40,41,41,43,43,44,44,45,45,46,46,47,47,48,48,49,49,51,51,53,53,54,54,56,56,57,57,58,58,59,59,60,60],"right_children":[2,4,6,8,10,12,14,16,18,20,22,24,26,28,30,32,34,36,38,-1,40,42,44,46,48,50,52,54,56,58,60,62,64,66,68,70,72,74,76,78,80,82,-1,84,86,88,90,92,94,96,-1,98,-1,100,102,-1,104,106,108,110,112,-1,-1,-1,-1,-1,-1,-1,-1,-1,-1,-1,-1,-1,-1,-1,-1,-1,-1,-1,-1,-1,-1,-1,-1,-1,-1,-1,-1,-1,-1,-1,-1,-1,-1,-1,-1,-1,-1,-1,-1,-1,-1,-1,-1,-1,-1,-1,-1,-1,-1,-1,-1],"split_conditions":[7.4E0,2.871E1,8.394E1,5.11E0,6.481E1,8.338E1,8.02E0,4.84E0,1.758E1,2.537E1,3.208E1,7.44E0,8.43E0,3.04E1,2.43E0,3.151E1,3.239E1,7.13E0,2.967E1,3.1043847E0,3.54E0,3.201E1,2.994E1,1.776E1,1.801E1,2.673E1,3.63E0,1.88E1,1.819E1,3.061E1,2.987E1,2.84E1,7.838E1,7.25E1,2.794E1,3.056E1,2.816E1,2.527E1,2.762E1,3.52E0,6.431E1,3.117E1,4.7446785E0,2.592E1,3.001E1,3.17E1,3.4E0,7.48E0,1.88E0,2.963E1,3.9716127E0,8.52E0,1.4630727E1,1.62E0,7.59E0,7.205665E0,3.57E0,8.656E1,2.633E1,2.502E1,3.25E0,1.9562544E-2,1.3040774E0,-2.634319E-1,9.584592E-1,-9.280986E-2,-1.1979989E0,5.3386083E0,2.1650791E-2,2.527186E-1,-8.191864E-1,2.4068124E0,-6.0778946E-1,2.3075345E0,8.045307E0,-7.7241E-1,3.6521204E0,1.7928648E-1,2.7195802E0,-1.0140114E-1,-1.0754244E0,3.1195068E0,-3.6142373E-1,8.6481494E-1,-1.7584029E-1,2.0848572E0,5.1291265E0,-2.1322495E-1,8.23315E-1,-7.3501915E-1,-1.8234291E0,-2.358751E-1,-4.644157E-3,-1.9794668E-1,2.1523549E-1,7.845804E-2,-2.4605064E-1,3.0229945E0,1.7513399E-1,5.232985E-1,-7.629585E-2,-1.4439642E0,3.3540237E0,-9.1194665E-1,3.4425018E0,-1.5462068E-1,1.0817848E0,1.9818269E0,-9.161661E-1,-3.7882552E-1,1.6029891E-1,-1.054034E0,-4.8074082E-1],"split_indices":[1,0,4,6,4,4,1,6,5,3,2,1,1,2,6,2,2,1,2,0,6,2,0,5,5,0,6,5,5,2,2,0,4,4,0,2,0,0,0,6,4,2,0,3,0,2,6,1,6,2,0,1,0,6,1,0,6,4,0,0,6,0,0,0,0,0,0,0,0,0,0,0,0,0,0,0,0,0,0,0,0,0,0,0,0,0,0,0,0,0,0,0,0,0,0,0,0,0,0,0,0,0,0,0,0,0,0,0,0,0,0,0,0],"split_type":[0,0,0,0,0,0,0,0,0,0,0,0,0,0,0,0,0,0,0,0,0,0,0,0,0,0,0,0,0,0,0,0,0,0,0,0,0,0,0,0,0,0,0,0,0,0,0,0,0,0,0,0,0,0,0,0,0,0,0,0,0,0,0,0,0,0,0,0,0,0,0,0,0,0,0,0,0,0,0,0,0,0,0,0,0,0,0,0,0,0,0,0,0,0,0,0,0,0,0,0,0,0,0,0,0,0,0,0,0,0,0,0,0],"sum_hessian":[3.27808E5,6.6376E4,2.61432E5,6.5064E4,1.312E3,2.53892E5,7.54E3,6.4871E4,1.93E2,8.14E2,4.98E2,2.51555E5,2.337E3,4.83E3,2.71E3,6.4713E4,1.58E2,1.54E2,3.9E1,9E0,8.05E2,7.8E1,4.2E2,7.99E2,2.50756E5,1.873E3,4.64E2,4.754E3,7.6E1,1.361E3,1.349E3,6.3171E4,1.542E3,1.54E2,4E0,1.43E2,1.1E1,1E1,2.9E1,2.85E2,5.2E2,4.8E1,3E1,4.05E2,1.5E1,6.48E2,1.51E2,2.45739E5,5.017E3,1.871E3,2E0,4.57E2,7E0,4.739E3,1.5E1,1.7E1,5.9E1,1.296E3,6.5E1,1.053E3,2.96E2,6.3105E4,6.6E1,1.471E3,7.1E1,4.1E1,1.13E2,3E0,1E0,9.2E1,5.1E1,9E0,2E0,2E0,8E0,7E0,2.2E1,2.77E2,8E0,4.99E2,2.1E1,1.4E1,3.4E1,1.64E2,2.41E2,9E0,6E0,5.7E2,7.8E1,1.28E2,2.3E1,6.57E2,2.45082E5,1.69E3,3.327E3,1.252E3,6.19E2,9.4E1,3.63E2,2.32E2,4.507E3,3E0,1.2E1,5.3E1,6E0,1.244E3,5.2E1,5.4E1,1.1E1,8.14E2,2.39E2,2.67E2,2.9E1],"tree_param":{"num_deleted":"0","num_feature":"9","num_nodes":"113","size_leaf_vector":"1"}},{"base_weights":[5.633018E-4,1.805505E-2,-4.75758E-2,1.23968445E-1,5.3082467E-3,-3.375252E-2,-1.0820726E0,1.1038636E-1,5.5057926E0,8.322655E-3,-9.931413E-1,-4.0788453E-2,5.6823306E0,-8.035322E-1,-3.5627997E0,9.94814E-2,3.9469728E0,1.0098557E1,2.0719237E0,2.4762163E-3,9.2637587E-1,3.2559702E0,-1.4019654E0,-2.2479377E0,-3.883829E-2,7.8262395E-1,1.3129917E1,-2.0288093E0,-2.7344212E-1,-1.8910301E0,-4.291458E0,-9.209245E-2,3.007093E-1,1.783578E0,7.22697E0,-4.4410044E-1,2.100113E0,1.2992062E-2,-4.8276412E-1,1.2609658E1,7.0606875E-1,-2.775437E0,8.4041E0,-1.6299771E0,2.495988E0,-2.7305262E0,5.0919294E0,-4.3079343E-2,7.485179E-1,-1.6796155E0,3.0770073E0,4.2709203E0,7.088754E0,-1.0215462E0,-3.315355E0,3.6296332E0,-6.182817E-1,-2.9546003E0,-3.104316E-1,-4.6446943E0,-4.0630087E-1,-4.835094E-1,-9.289419E-3,7.100013E-2,1.3311203E0,2.4661121E0,-1.0035117E0,4.1205862E-1,-1.6082695E0,1.2143767E-1,2.4840506E-3,-2.8613204E-1,8.368333E-2,2.078312E1,-2.6794422E0,5.7998426E-2,1.3443227E0,6.7442083E-1,-1.2953327E0,3.4213967E0,1.0116613E0,3.5635436E-1,-6.1496305E-1,-1.3586085E0,2.0177233E0,-1.4854869E-1,-1.2629296E0,-7.912402E-2,-8.86633E-3,-3.500799E-1,4.3937525E-1,2.3997343E-1,-6.847739E-1,-7.3750067E-1,9.9577206E-1,3.0325751E0,-1.0641298E0,-4.3612015E-1,5.3826654E-1,3.443625E-1,-1.2264333E0,9.922797E0,2.6600957E-1,1.2095221E-1,-4.5191684E-1,-1.0240606E0,-6.187575E-1,1.0524983E0,-5.627136E-1,-1.0502186E0,